{{-0.0684682, 0.23995137, 0.5981444, 0.18955073, -1.002805}, 
{-0.67196274, 0.5248072, 0.4861626, -1.2752764, 0.81624544}, 
{0.05856503, 0.23429535, -0.15799066, -0.26448134, -0.24557841}, 
{0.21742967, -0.1694501, -0.1913983, -0.21103983, -0.09480256}, 
{-0.2524501, 0.10261569, -0.17209917, 0.2389297, -0.012304544}, 
{-1.0869249, 0.7970367, 1.8643663, -1.6968833, -0.587203}, 
{-0.16113354, 0.22544754, 0.2096377, 0.65603715, -0.6823653}, 
{0.13334958, 0.27204078, -0.052523315, -0.1263976, 0.028009074}, 
{0.22052139, 0.15415113, 0.018649196, 0.23983221, -0.029099261}, 
{-0.35494137, -0.24851562, -0.43277356, 0.24476765, 0.63136274}, 
{0.16349858, 0.06177352, 0.08212811, -0.11058728, -0.07435395}, 
{-0.01653668, -0.22825739, 0.18805115, -0.016688423, -0.07005581}, 
{0.0033993311, 0.31818277, 0.9999267, -0.3829435, -0.6245072}, 
{0.057718623, -0.02010095, 0.22700046, -0.107930996, -0.22223467}, 
{0.12938751, 0.6740047, -0.5794302, -0.6789078, 0.29081917}, 
{0.45767564, 0.08902938, -0.5984413, 0.30388093, -0.24881807}, 
{-0.11503523, -0.034340765, 0.00263617, 0.17889571, -0.14240906}, 
{0.10687095, 0.10245144, 0.027857035, 0.20091218, -0.2602757}, 
{-0.08293696, -0.18920791, -0.10890417, -0.10797061, 0.23054165}, 
{0.15875478, -0.093393154, 0.016668966, -0.05181456, 0.06253527}, 
{0.81551296, -1.2258815, 0.67851925, 0.21342227, -0.16495408}, 
{-0.13874747, 0.09912116, -0.11936131, 0.036549326, 0.08467679}, 
{0.069601744, -0.071390584, -0.080433205, 0.24925062, -0.14311436}, 
{1.6449677, 0.8654623, -1.1019425, -1.8078569, -0.3348123}, 
{0.18347512, 0.14272784, -0.18580301, -0.25266424, -0.13966091}, 
{-0.18170255, 0.5362773, 0.36564127, -0.5376357, -0.9787219}, 
{0.10441813, 0.16750443, 0.14854294, -0.08484222, -0.031426027}, 
{-0.14744356, -0.023356931, -0.18301086, 0.20494354, 0.15097946}, 
{0.6235238, 0.2983985, -0.46224958, 0.08851008, -0.4903704}, 
{0.19720733, 0.207843, -0.08462214, -0.16276374, 0.09316569}, 
{-0.22101209, 0.05075358, 0.04038445, -0.063323595, -0.04939093}, 
{-0.310989, 0.58211046, 0.8467825, -1.4189178, 0.24930485}, 
{-0.6081019, -0.6835348, 0.41846472, 0.7486665, -0.67802995}, 
{0.11220291, -0.09851933, 0.016460642, 0.01360106, -0.1860762}, 
{-0.14425042, 0.17412949, -0.15857922, -0.06517085, -0.045106202}, 
{0.06690729, -0.14710966, 0.24706933, -0.21599486, -0.096742794}, 
{-0.9748216, 0.7594844, -0.24472037, 0.3416101, 0.30678383}, 
{-0.016173698, -0.20472075, -0.24996948, 0.20607509, 0.12805592}, 
{-0.9607614, 0.64997876, -0.19165875, 0.024091724, 0.059052683}, 
{0.23824753, -0.12790404, 0.23949623, -0.1785801, 0.03705966}, 
{-0.035426494, 0.21210343, 0.054946266, -0.14196908, 0.17000183}, 
{1.1284348, -0.17675665, -0.98777455, -0.59166616, 0.10727706}, 
{-0.2570818, -0.037016284, -0.512194, 0.3595007, -0.09699005}, 
{0.5533936, -0.72878855, 0.61825067, -1.545524, 0.5471255}, 
{-0.24120747, -0.2204743, 0.24661526, 0.24736527, 0.17284614}, 
{0.09195773, 0.20228533, -0.1448646, 0.082734615, -0.24310045}, 
{-0.021651119, -1.0131125, 0.8541955, -0.3713273, 0.053682983}, 
{0.25927308, 0.16621494, 0.009757072, -0.20935614, 0.24072883}, 
{-0.9539136, -0.9015284, 0.65960187, -0.33980703, 0.27001292}, 
{0.16402878, -0.0012462679, -0.08043915, -0.17374282, -0.008083536}, 
{0.008638439, -0.041350022, 0.05177373, -0.139721, 0.004591639}, 
{-0.9281912, -0.99325824, 0.18160552, -0.15116528, 0.5960099}, 
{0.18139409, -1.5607417, 0.6978003, -0.7892248, 0.76574796}, 
{-0.09786831, 0.14504614, 0.050821275, 0.048086245, -0.24524453}, 
{-0.20338489, -0.016568542, 0.2075029, -0.18784651, -0.088628605}, 
{0.6432674, -0.4696905, 0.29714456, 0.24899074, -0.8448394}, 
{0.6859409, -1.6444751, -0.36662877, -1.0508156, 0.7994248}, 
{-0.69435835, -0.42833847, 0.77906656, 0.068202555, -0.8042811}, 
{0.08638485, -0.020342747, 0.17672744, 0.1467364, -0.24268185}, 
{-0.12907702, -1.4928542, 0.08287232, 1.0020674, 0.624862}, 
{-0.007470063, -0.20122944, -0.052062053, 0.1592459, -0.099624015}, 
{-0.014890915, 0.08371289, -0.2438013, -0.06506935, 0.23417448}, 
{1.2952623, -0.48756313, 0.22547074, -0.8546951, -0.71217376}, 
{0.20959415, 0.19334796, 0.2434595, -0.12540168, -0.15647608}, 
{-0.017470295, -0.07692424, 0.13478929, 0.00264182, 0.11536157}, 
{-0.49613667, 0.20190802, -0.07515857, -1.098989, 0.97298443}, 
{-0.06798679, 0.21717346, 0.17993364, -0.11373365, -0.16012347}, 
{0.82672524, -0.39738718, -0.39180636, -0.10851174, -0.4961238}, 
{-0.022668824, 0.1984989, 0.22315389, -0.16862975, 0.14028889}, 
{-0.06773784, -0.23628984, -0.21745294, 0.08480876, 0.12416299}, 
{-0.19751772, -0.9837054, 0.23924485, 0.45874032, 0.30571613}, 
{-0.007473588, -0.115886346, -0.18698998, 0.07235423, -0.11252822}, 
{0.12470174, 0.19521198, -0.22554557, 0.25049397, 0.17541218}, 
{0.24184541, 0.16993563, 0.15622054, -0.23947391, 0.17639105}, 
{0.11906253, 0.0948766, -0.0026814733, -0.0062561478, -0.19246735}, 
{-0.73045516, 0.5374037, 0.37886643, 0.4599949, -0.5924551}, 
{-0.07371806, -0.029888038, -0.007907275, 0.012426181, -0.2490076}, 
{1.1978399, -2.3961396, -0.08393357, -0.07158471, 0.5140194}, 
{0.15591696, -0.106240496, 0.19782937, -0.14544415, 0.23703548}, 
{-0.89471316, 0.6556732, 0.36034787, -0.65859854, 0.55379796}}