{{0.10387291, 0.17631835, -0.03875109, -0.026729638, -0.085304745, 0.28936505, 0.16085406, -0.083379604, -0.03541057, 0.05717197, -0.093205504, -0.07602293, 0.21796735, 0.050294235, -0.19828548, -0.14146414, -0.030909628, -0.07301421, -0.026074655, 0.0116165895, 0.12367269, 0.035665765, 0.044781975, -0.25836393, 0.021885494, 0.028424997, -0.072620034, 0.07844744, -0.33539468, -0.056438856, -0.041311108, 0.095462345, 0.15998404, 0.008433273, -0.060179465, 0.08877214, -0.039940365, -0.0015467487, 0.03166938, 0.0027913987, -0.08143149, -0.2463234, -0.119172886, 0.029996108, -0.05451953, 0.054440696, 0.3348206, 0.05642759, 0.2456875, 0.04207217, -0.058656447, 0.28678226, 0.3179557, 0.022784201, 0.0012067929, 0.011990072, -0.20424482, 0.38556778, 0.07529164, 0.12317829, -0.033858493, 0.043454356, -0.04489336, -0.06269385, -0.039223477, 0.09173708, -0.08493692, -0.23935428, -0.066603854, -0.03298563, 0.14272931, 0.015680492, 0.082234025, 0.0081669865, 0.03532748, 0.07692533, -0.03882756, 0.10122373, -0.005851671, 0.083550975}, 
{-0.055292103, 0.27957988, -0.04950378, 0.08683838, 0.028394356, 0.24056378, -0.2811957, -0.024442747, 0.06739316, -0.06629672, -0.093665674, -0.06508026, 0.086480565, -0.077507176, 0.1723078, -0.2930113, 0.031477228, 0.012199312, 0.023836896, -0.047565795, -0.0159479, -0.06776886, -0.05091267, 0.17327118, -0.09117197, 0.04473947, 0.07118701, 0.06453275, -0.15279882, -0.07718174, -0.093811564, 0.36376482, -0.15796767, -0.057079334, 0.01846445, 0.013934374, 0.03489817, -0.08082363, -0.013509062, 0.05283226, -0.09071972, 0.022618106, -0.18877764, 0.052531928, -0.07258536, 0.05095982, 0.22201209, -0.0009944439, 0.15644945, -0.011390259, 0.047931768, 0.22489758, 0.21969728, -0.081578135, 0.03819383, -0.2300197, -0.032001115, 0.009480707, -0.07046741, -0.1051564, 0.0040438133, 0.03431141, 0.1351707, -0.044212192, 0.07943041, 0.22678833, -0.029409833, -0.07735252, 0.070079945, -0.07778788, -0.1820724, 0.08689367, 0.07291811, -0.028559858, -0.005048626, -0.16487828, 0.02207414, 0.3202379, 0.017589368, 0.20581377}, 
{-0.20210241, -0.0743571, 0.04506324, -0.022329528, 0.045906547, 0.001997609, -0.026493872, -0.030581346, 0.066434145, 0.39466858, 0.026405824, -0.09847342, -0.17043523, 0.068075635, -0.098574966, 0.09610451, -0.09374482, 0.052499004, -0.04361621, -0.09301078, 0.005027326, -0.095418274, -0.077372015, -0.2311934, -0.015972748, -0.416612, -0.06142584, -0.08433651, -0.13481514, -0.06761848, -0.08598802, -0.22097939, 0.11189124, -0.06322684, -0.07253529, -0.084326155, 0.024597522, -0.013133059, 0.0077374782, 0.0068713645, -0.083652936, -0.07395414, 0.11546523, -0.04499096, -0.0053620264, -0.08008156, -0.023723673, -0.076956294, 0.14649329, 0.02813915, -0.08720763, 0.3848758, 0.14492811, -0.046188805, 0.08873246, -0.00067223096, -0.10259058, -0.04185413, -0.067296915, 0.45230755, 0.044097554, -0.03743711, -0.14629059, -0.017512495, -0.08925533, 0.048908457, -0.020880148, -0.058898337, -0.05994944, -0.006184456, 0.36876717, -0.07113014, -0.07121548, 0.025713136, 0.040385883, -0.08784517, 0.017214093, -0.025889216, 0.024431236, -0.121102735}, 
{-0.39090464, 0.09585184, 0.005541127, -0.06397225, -0.0071330154, -0.1273593, -0.20000279, -0.06482449, -0.092270665, 0.47926375, 0.071335234, -0.08287762, -0.5312238, 0.034800664, 0.2030371, 0.15860702, 0.06365942, 0.035766117, 0.08927425, -0.099320084, -0.44080836, 0.07896164, -0.022636302, -0.21447854, 0.085175596, -0.4694833, 0.02164936, -0.044454724, -0.0071245884, 0.022258712, 0.030144315, -0.17213346, -0.13653107, 0.080203004, 0.07310752, 0.08715423, 0.3830034, 0.047159884, 0.2636415, 0.056388076, 0.03694995, 0.117178746, 0.41376057, -0.33585703, -0.045675073, 0.052866764, -0.28266603, 0.084384464, -0.25090408, -0.09361588, -0.098400146, 0.16396068, -0.0551403, -0.035750467, -0.09027494, -0.35454166, -0.0381223, -0.32355383, -0.07212404, 0.31588447, -0.04057163, -0.06899118, -0.48191607, -0.012298047, -0.023367096, 0.13234983, -0.028888822, -0.19447693, -0.09151482, -0.018244414, 0.01186787, -0.03401549, 0.044988327, 0.07909776, -0.010149579, -0.104691334, -0.026661819, -0.02285668, 0.08895493, 0.010473135}, 
{-0.22085458, 0.16517167, -0.029064704, -0.07475293, -0.025657034, 0.013600897, -0.17221187, -0.03810516, -0.058189034, 0.24320404, -0.07807843, -0.023682408, -0.114177726, 0.008509111, 0.17276458, 0.009481482, -0.002852582, -0.02830565, 0.003753446, -0.039866135, -0.19777653, -0.039435666, -0.060659546, -0.08006946, -6.390777e-05, -0.043873955, 0.016546309, 0.07250638, 0.0021279906, 0.032766905, -0.09154161, 0.120201714, -0.24488926, 0.0384018, 0.0071041277, 0.06290326, 0.1246784, -0.08269744, 0.14284457, 0.039465975, -0.05848519, 0.039719053, 0.028667258, -0.032488972, -0.07474101, 0.041241076, -0.17929651, -0.042062465, 0.015601941, -0.08084672, -0.08485802, 0.122377716, 0.068059504, 0.059120364, 0.08216939, -0.17024305, 0.016279913, -0.19642495, -0.09609484, -0.074089944, -0.098129205, 0.08155784, -0.20144065, -0.034208987, -0.011013774, 0.23301873, -0.05915859, -0.12326375, -0.044494957, -0.04567789, -0.08196145, 0.021019101, -0.064554796, -0.07482297, -0.0083154915, -0.15977098, -0.0046115927, -0.07286892, -0.07189637, 0.20235394}, 
{-0.1321626, 0.22830948, 0.017011099, -0.011273285, -0.012667716, -0.10531599, -0.070553586, 0.010432807, 0.05363377, 0.09401364, 0.035033792, -0.090836585, -0.028423198, 0.03925763, 0.23726502, -0.033509642, 0.033400644, -0.04922967, 0.08161499, 0.015164086, -0.1508675, -0.05688458, 0.059614487, 0.040131636, 0.08722896, 0.10076632, 0.053933553, 0.0027572848, -0.11584434, 0.068508156, 0.042626187, 0.032600418, -0.020711537, 0.00793867, -0.0033237028, 0.055512078, 0.06757691, -0.05242956, 0.039174378, 0.009616306, 0.022136107, -0.021485604, 0.039871015, 0.1518877, -0.090314314, 0.04302279, 0.049557682, -0.050688557, 0.09214956, -0.010351802, -0.05925183, 0.09125897, 0.094222255, -0.05907194, -0.05011838, -0.1906549, -0.13805376, 0.009585268, -0.040054247, 0.04218677, 0.07541716, -0.070096694, -0.16076045, 0.0147270635, -0.019191362, 0.10000917, 0.06906506, -0.08373066, 0.087692164, -0.07612135, -0.13765168, -0.031821735, 0.018761799, 0.06864482, -0.05288334, -0.00384923, 0.06676665, -0.078962505, -0.011002734, 0.18649796}, 
{-0.14730479, 0.10922994, -0.009301801, 0.06469648, 0.06141516, 0.023084909, -0.1516963, -0.0662139, 0.076196745, 0.06193379, 0.066009425, -0.04612494, -0.07249394, 0.08471764, 0.18587561, 0.0044453046, -0.06350303, 0.051401176, 0.009545788, -0.056659877, -0.037073415, -0.06960164, 0.07898191, -0.13901398, 0.06284778, 0.088941984, -0.07451895, 0.060276598, -0.16714883, 0.005812043, 0.046210244, 0.15878454, -0.064848304, 0.029077426, -0.059210103, -0.02091194, 0.18488224, 0.022848338, 0.17417417, 0.022171704, -0.05986596, -0.054542553, 0.042164832, 0.095110044, -0.08923409, -0.04151543, 0.019862877, -0.088271916, 0.077981845, 0.020496553, -0.09745713, 0.020875169, -0.0039274795, -0.09362178, -0.07176475, -0.09686997, -0.1137811, -0.027475584, -0.079590425, -0.011172915, -0.09385393, -0.09266115, -0.15018201, 0.032792535, -0.039066505, 0.09133259, 0.07118101, -0.055464443, 0.03403496, -0.08974773, -0.09514117, 0.04668679, -0.047344744, 0.07109596, -0.08339507, -0.062160853, -0.043104675, 0.08559453, -0.03707507, 0.040459946}, 
{-0.07656083, 0.07745354, -0.028289378, 0.050895542, 0.010589496, 0.031049157, -0.05927025, -0.05459121, 0.013783957, 0.06476186, 0.006580262, 0.06939987, -0.03417777, 0.07797093, 0.068351306, 0.026285376, -0.022858098, -0.017540455, -0.051491193, 0.033160497, -0.14319317, 0.043146763, 0.08687165, 0.008375909, 0.08800996, 0.018336102, 0.016999535, -0.02826655, -0.034068514, -0.04511001, 0.08125227, -0.009373736, -0.16461399, 0.0023557104, 0.010763584, -0.03584294, 0.15857504, -0.057488255, 0.13626188, 0.023071464, 0.04231028, -0.00089829986, 0.019095922, 0.06548893, 0.053677477, 0.018648703, -0.08962315, -0.06415297, 0.016588237, -0.04486841, 0.0046913633, 0.09800698, 0.039794292, -0.0071898894, 0.006790586, -0.19216207, 0.016511358, -0.14678265, -0.059520178, 0.052480258, 0.04610457, -0.03325163, 0.012267516, -0.016398583, 0.015344411, 0.037202857, 0.050195746, -0.013652099, -0.07603384, 0.024197381, -0.074242525, 0.0058169663, -0.060447384, -0.08571063, 0.049196597, 0.02804665, -0.08338296, 0.19070534, 0.069726415, 0.03738508}, 
{-0.034804817, 0.17056237, -0.09262718, 0.06707731, -0.07068961, -0.004136755, -0.04058206, 0.024965957, 0.00023625491, 0.13922188, 0.083032176, -0.060187105, 0.046621505, -0.06930792, 0.15017058, -0.05857961, -0.08543484, 0.0864132, 0.045758404, 0.087597184, -0.2034517, 0.012204013, -0.072186194, -0.025651917, -0.04558791, 0.02709905, 0.008649029, 0.061343443, -0.082382396, 0.08939789, 0.08578353, 0.14301305, -0.18026476, 0.055932403, -0.024583803, -0.0027508214, 0.12021151, -0.09320194, 0.13926122, -0.035484366, 0.050485782, 0.049789455, -0.06232398, -0.008762579, -0.00088935345, 0.03704424, 0.028715277, 0.06085325, -0.008071718, -0.040234514, -0.016156731, 0.030450214, 0.0583977, -0.06273268, -0.088424414, -0.08066405, -0.076855786, -0.03815403, 0.08481372, -0.053710446, -0.09336377, 0.07374626, 0.018869037, -0.0019304344, 0.00047972673, 0.17069533, 0.02760733, -0.095826544, 0.07794971, 0.023621486, -0.083384626, -0.03694487, 0.057298418, -0.06025301, 0.074807905, -0.054257035, 0.0063421554, 0.09859653, -0.08119779, 0.16044424}, 
{-0.115569934, 0.06595303, 0.034625363, -0.023279414, -0.012538286, 0.064407796, -0.059637897, 0.0019493806, -0.072427824, 0.13132358, 0.07097488, 0.032026768, -0.010563427, -0.07744804, 0.19926022, -0.026700387, -0.04348816, 0.00044622272, 0.053537883, 0.047850154, -0.16362149, 0.0013549749, -0.012336537, 0.04617765, 0.07270954, -0.09134581, -0.021269575, 0.008545968, 0.014848248, 0.015335076, -0.025413577, 0.13117728, -0.13645868, 0.052133758, 0.035399135, 0.052563496, 0.11666163, -0.096129835, 0.037717417, -0.016344845, -0.09995362, 0.036571544, -0.006115878, 0.11607969, 0.07500357, -0.032093633, -0.057778206, 0.011907592, 0.0041271634, -0.09655659, -0.055814452, 0.014866886, -0.046980884, -0.05420971, -0.044141646, -0.21431413, 0.020402955, -0.076046266, -0.044160236, 0.030763302, -0.007687135, -0.048103467, -0.026595194, 0.06365429, -0.0050468133, 0.19713502, 0.033473276, -0.09464517, -0.07798854, 0.022805782, -0.1780004, -0.00852786, -0.009960061, 0.034606054, 0.07662289, -0.09995055, 0.014899809, 0.28891692, -0.0817204, 0.04837864}, 
{-0.11793032, 0.09904224, -0.07265835, -0.0639277, -0.09141214, -0.03695599, -0.06806059, 0.041694853, -0.0025151663, 0.16873509, -0.08609093, -0.04847026, -0.0634316, -0.012367186, 0.10863178, 0.102752715, -0.07731916, -0.07889563, 0.084122516, -0.054687057, -0.10125005, 0.03321809, 0.0050720125, 0.16467087, 0.04699125, -0.13211773, -0.0406324, -0.056521427, -0.0062028216, -0.017590452, -0.05367395, -0.022448316, -0.1629741, 0.034420524, -0.062341616, 0.016387247, 0.013449026, 0.004896188, 0.15607895, 0.06880376, -0.06394597, 0.068519905, 0.06265445, 0.10950067, 0.04242588, -0.029415162, -0.18283461, 0.047877543, 0.027265757, -0.069829896, 0.02661527, 0.0059737265, -0.04045607, 0.06268297, 0.03427907, -0.14327757, 0.024687624, -0.10549746, -0.01353087, 0.06581029, 0.08403278, 0.024716387, 0.04155889, -0.048135255, -0.035935022, 0.11469603, 0.04011079, -0.030011209, 0.026009582, -0.094143085, -0.118895836, -0.012726918, 0.07563653, 0.038596265, -0.032664005, -0.17697528, 0.04252363, 0.1616192, -0.01782459, 0.16437887}, 
{-0.12952694, 0.14183481, 0.043330047, -0.003000849, -0.052893862, -0.02998789, -0.1966273, 0.044601798, 0.026728956, 0.2344864, 0.08417722, 0.06677599, -0.10718913, -0.057740677, 0.19058576, -0.0075636464, 0.01991144, 0.033006094, 0.05289743, -0.024943922, -0.13293955, -0.043682575, -0.0063727275, 0.17272714, 0.08856703, -0.10282267, -0.045041077, -0.025029575, -0.03353702, 0.015268007, 0.062877655, -0.034305092, -0.10169705, 0.0182388, 0.07502246, 0.009338178, 0.054511786, 0.07969575, 0.13236329, -0.10042555, 0.055988852, 0.20608215, 0.10992412, 0.084727414, 0.013913922, 0.00951653, -0.027472414, -0.030755192, -0.021703942, -0.0073904814, 0.044092756, 0.10804407, -0.0928702, 0.07013815, -0.06440093, -0.26241735, 0.09568927, -0.26407883, -0.08568796, 0.050681047, -0.05960742, 0.079953656, -0.1526641, -0.079078585, -0.09831907, 0.15461698, -0.07116459, -0.046794135, 0.06704285, 0.019595582, -0.005570428, 0.00852216, 0.0055234376, -0.08998361, -0.07054922, -0.081898674, 0.03460036, 0.1941136, 0.016166277, 0.10893017}, 
{-0.14066736, 0.15807329, -0.08089039, -0.047470298, 0.07090124, -0.08498925, -0.16223884, 0.043034654, -0.07996313, 0.20779198, -0.022410193, 0.054447833, -0.09702045, -0.06767347, 0.07012516, 0.046719167, 0.013161584, -0.05692087, 0.003853798, -0.03023601, -0.092404336, -0.0557532, 0.084485285, 0.08867898, 0.011666314, -0.116085164, 0.04558616, -0.05624195, -0.007167667, 0.080752976, -0.019751307, -0.019235976, -0.21957041, 0.05942222, -0.06513495, 0.053948097, 0.10221959, -0.063508004, 0.05035596, -0.08046028, -0.09676048, 0.19450766, 0.05287944, 0.114776894, -0.040761594, -0.07760354, -0.12700525, -0.03881847, 0.026188474, -0.07696767, -0.098453015, -0.03726565, 0.084446274, 0.0073974407, 0.045418806, -0.09107564, 0.093991905, -0.23801196, 0.021798888, -0.040307164, 0.042908672, 0.055455074, -0.10422968, -0.09474357, -0.03456794, 0.17590864, -0.07944385, -0.058098227, -0.039442275, -0.036460724, -0.100188784, 0.03501641, 0.076612934, -0.08141567, 0.0045927945, -0.05781768, 0.07639103, 0.21290402, -0.07768857, 0.17162694}, 
{-0.07532406, 0.074116044, 0.046707228, 0.075503774, 0.051864628, 0.07762242, 0.0127162635, 0.057650756, -0.03991845, 0.14283724, -0.05537305, -0.10259404, 0.023177747, -0.04488654, 0.062470336, -0.09220284, 0.047219425, 0.058880247, 0.022303373, -0.002150561, -0.096743755, -0.0113784745, -0.0830908, 0.105336316, -0.079663284, 0.063181, -0.031475037, 0.05102153, -0.06986557, -0.011583587, -0.059329487, 0.06314843, -0.059012365, -0.081531204, 0.07300603, -0.03763571, 0.015786028, -0.046134528, 0.04738117, 0.017599465, -0.021528501, -0.014113619, 0.03572112, -0.011140119, 0.06449453, 0.05046383, 0.029126488, -0.06767544, 0.056499675, -0.0025661585, 0.04334875, -0.037355233, 0.0058673215, 0.015145152, 0.06706139, -0.0334611, 0.1485964, 0.003512232, -0.035808608, 0.035652697, 0.0012103494, -0.016230974, -0.13914628, 0.038493227, -0.08890415, 0.055323273, 0.020073682, -0.0034128851, 0.043681882, 0.017228356, -0.13706101, -0.0931643, -0.08274971, 0.031053765, 0.047841337, -0.029836874, 0.057681955, 0.11964817, -0.014064528, -0.013133284}, 
{0.07720161, -0.015282901, 0.0841162, 0.08404997, 0.022498418, 0.001087879, -0.0863797, -0.037719764, 0.054419786, 0.04365612, 0.0055303182, -0.07526945, 0.049184136, 0.0288784, 0.16006947, 0.029950952, 0.00044072323, 0.08765242, 0.061035447, 0.0011413881, -0.0003459453, -0.08719113, 0.026343577, -0.023319738, -0.074415155, 0.07137974, -0.060222145, 0.03307586, 0.07684399, -0.03878091, -0.043336503, -0.020353206, -0.1026883, 0.027693124, -0.01495692, -0.032745697, -0.029117083, -0.090499155, 0.014403527, 0.008795663, -0.038783886, -0.04768018, 0.0122984685, 0.02935261, 0.0051679164, -0.0021764452, -0.016446777, 0.04439137, 0.049007382, -0.060401395, 0.00811348, -0.06662647, -0.11870214, 0.06536999, 0.05214288, 0.04153931, 0.064123884, 0.030769898, -0.0017712477, -0.112545945, 0.017187411, -0.022051081, 0.014517388, -0.0623145, -0.06244679, 0.021524264, 0.050573997, 0.042449336, -0.09310119, -0.09270497, -0.07707609, -0.061255235, -0.006096612, 0.072669365, 0.016815128, 0.022313075, -0.077864096, 0.1642336, 0.07109588, 0.06753644}, 
{0.077926375, 0.14222908, -0.05546327, 0.07333388, 0.03917661, 0.053403202, -0.035948798, -0.03917254, -0.10015413, -0.009793187, -0.07252344, -0.02255863, -0.052873917, -0.06332959, 0.0928979, 0.034709893, -0.00016043952, -0.0065221936, 0.08527961, -0.0032657417, 0.006028511, -0.10151816, 0.044353954, 0.055633385, 0.035186607, -0.013019656, 0.09128969, 0.06430338, 0.008490936, -0.023240656, -0.06542802, 0.002030566, -0.027868742, 0.04822252, -0.08988041, -0.07152864, 0.0023510987, 0.0026970399, 0.022153193, -0.05483713, -0.09785159, 0.06714972, 0.1163528, -0.013886446, -0.0051027313, -0.0261233, 0.034588184, -0.02229517, 0.026080366, 0.0029062727, 0.033422075, 0.03409028, -0.12797338, -0.07121319, -0.03589429, -0.046373382, 0.024781084, 0.02286734, -0.10187198, 0.07582376, -0.0012511371, 0.044313334, -0.02911878, -0.0037130292, -0.004712266, -0.05535068, -0.078023106, -0.024918636, -0.0014908761, 0.066414475, 0.046748962, -0.019582406, 0.055849243, -0.05409052, -0.08270554, 0.01722484, 0.07883566, 0.17441162, -0.026436016, 0.08924962}, 
{0.0008023624, -0.0029203934, -0.040536456, 0.0040369765, -0.0029664298, 0.03582667, -0.030880082, 0.048230536, 0.023819884, 0.013461446, 0.04158633, 0.045211535, 0.1050259, -0.04210986, -0.009557749, -0.082770035, -0.025196327, 0.008696772, -0.08058725, 0.022568975, -0.103007816, 0.01092108, 0.08518853, -0.05698354, 0.073845215, -0.007394082, 0.09400069, 0.030861504, -0.06603043, 0.017786501, -0.011895455, 0.09315962, -0.09150293, 0.04210508, -0.07448492, 0.071184136, 0.08075306, -0.088944785, 0.093215175, 0.005683289, -0.009082518, -0.04901616, 0.042521857, 0.033863608, -0.0864532, 0.078783765, -0.0170434, 0.04426288, -0.019838015, 0.08642686, -0.03634266, -0.05890696, -0.016478773, -0.091241315, 0.055071555, -0.08972851, 0.10493656, 0.06836529, 0.008474145, 0.065128356, 0.016093295, -0.08328384, -0.12877294, -0.088886514, 0.048934314, -0.016690865, 0.07562072, -0.08915536, -0.033288967, -0.08283474, -0.054586526, 0.07599304, -0.075550474, -0.06679076, 0.021945477, 0.14828365, -0.06594526, 0.12775204, -0.00012426823, 0.14391944}, 
{-0.043137137, 0.010480566, 0.07900769, -0.04944433, 0.05626581, 0.03855733, -0.0642071, -0.07862017, -0.08380166, 0.13506761, -0.04016247, 0.069171734, 0.06552434, -0.02381608, 0.031178035, 0.010528185, -0.019882245, -0.009550922, -0.043814924, 0.02963645, -0.07861992, -0.0021047841, -0.06270373, -0.031374827, 0.048750337, 0.026861334, 0.050579928, 0.02936904, -0.050829634, -0.08208421, 0.040565714, 0.03665322, 0.0736477, -0.06510042, 0.08775015, 0.09060592, 0.15566517, -0.07079684, 0.17357749, -0.026592912, -0.066379584, -0.0276399, 0.1592941, -0.0744944, -0.08420606, 0.0027945167, -0.10681338, 0.053112514, -0.016400857, -0.10021846, 0.0117578255, 0.04362659, -0.11136943, 0.060546294, 0.03510437, -0.12386005, -0.012273874, 0.01840867, 0.0054671085, 0.0069918158, 0.08435623, 0.028289715, -0.018407304, -0.06621916, 0.039131504, -0.0021037424, 0.06853246, -0.009765374, 0.05608345, -0.043592215, -0.06959671, 0.000841327, -0.011069611, 0.05737798, 0.04744265, 0.07035641, 0.0068496256, 0.0972099, -0.020385198, 0.06225347}, 
{-0.059904426, 0.023117496, -0.022759046, 0.04023681, 0.080515765, 0.024765993, 0.0431307, -0.056495756, -0.09235958, 0.1416227, -0.09336221, -0.05909012, -0.026299493, 0.041696277, 0.044490248, 0.10694501, -0.041472908, 0.08374866, -0.06827872, 0.06393395, -0.04868638, 0.019110298, 0.07909299, 0.0056670494, 0.03375013, -0.0919519, -0.06998051, -0.10262288, 0.014292951, -0.03623143, 0.08663031, -0.013352203, -0.045310684, -0.09806122, 0.014195042, -0.019781433, 0.06747894, -0.06284513, 0.11354496, 0.036705468, -0.035645794, 0.07027361, 0.07692234, -0.121347554, 0.001998648, -0.08096566, -0.030556982, 0.08801866, 0.042467237, -0.022315485, -0.08671295, 0.1011911, -0.1249369, 0.027052552, -0.0042025447, -0.17660022, 0.1100219, -0.15125652, -0.00060155004, 0.100640684, 0.008996443, -0.09361028, -0.19320914, 0.08659785, 0.083203904, 0.026258195, 0.07233279, -0.05774937, -0.037579667, 0.05185917, -0.07375195, 0.0066273957, -0.05722083, -0.039614927, -0.0676146, 0.023079474, -0.032345913, 0.17684758, 0.031326033, 0.15722933}, 
{-0.111069836, 0.12975404, -0.04829331, 0.03784151, 0.03721064, 0.049184017, -0.025309835, -0.067773536, 0.011705326, 0.2929102, 0.052605458, 0.07251035, -0.28899026, 0.016145714, 0.030072797, 0.13167441, -0.045903765, 0.052201785, -0.023954093, -0.03638021, -0.24270453, -0.050904516, -0.060086522, -0.044769596, -0.011813384, -0.11674532, -0.0076659843, -0.051684517, -0.0806239, 0.04548961, -0.024361711, 0.038001947, -0.111245885, 0.033040933, -0.0817859, 0.06498458, 0.11355029, 0.038082164, 0.06903551, 0.04546194, -0.05470204, -0.058895297, 0.120223835, -0.03428751, 0.07904608, -0.036153197, -0.17681876, -0.09211983, -0.015421076, 0.052247897, 0.05463472, 0.21303225, 0.02979128, -0.065996416, -0.06442609, -0.18162152, 0.103336096, -0.080278076, -0.059223734, 0.05316234, -0.043587215, 0.004138379, -0.10320146, -0.08556162, 0.025812548, 0.14242099, -0.064344734, -0.09779463, -0.01050327, 0.06246709, 0.050604094, -0.016693473, -0.09125863, 0.07419264, 0.054719985, -0.025332253, 0.0889771, 0.09535705, -0.05857777, 0.111277856}, 
{-0.2131447, -0.042371143, 0.08499897, 0.0215248, 0.07795695, -0.083349206, -0.106149256, -0.037648723, 0.049044453, 0.21556018, -0.008364163, -0.06198096, -0.16449589, -0.053097863, 0.14598948, 0.089292325, -0.0069774217, -0.033799767, 0.0025587603, -0.06784662, -0.07858375, 0.020432454, 0.020626344, -0.078316286, -0.008080584, -0.15254226, -0.062148053, 0.0056010615, -0.041415602, -0.070248954, 0.058623094, -0.1320362, -0.07278977, -0.065655686, 0.033752013, -0.025991179, 0.2515045, -0.08962549, 0.24759024, -0.073972456, 0.028320089, 0.028575659, 0.24758035, 0.009277404, -0.03319507, 0.07549095, -0.090672985, -0.07133367, -0.029627932, -0.090811305, -0.024046717, 0.14138955, -0.14621995, 0.088606, 0.0073581412, -0.1927282, 0.15752572, -0.13602938, 0.0860142, 0.01025408, 0.055425208, 0.07734771, -0.21594822, -0.07768088, -0.06759936, 0.19251265, -0.09534294, -0.036636256, 0.032937296, -0.082124576, 0.03446444, -0.053425193, 0.08198333, 0.017618846, -0.039282873, 0.027704226, 0.03167446, 0.149215, 0.017972045, 0.11687329}, 
{-0.06941065, -0.06278461, -0.08071572, 0.07803937, -0.065062, -0.06829026, -0.07241241, -0.08965113, 0.08016181, 0.14255464, -0.06089425, -0.013417746, -0.14202258, -0.0798611, -0.027739897, 0.029478224, 0.07486674, 0.049800895, -0.04835701, -0.07785496, -0.05950208, -0.02069279, 0.034073345, 0.020015167, 0.004941407, -0.24509011, -0.0085193515, 0.08374944, -0.0033445265, -0.0065178187, -0.07875053, -0.17854865, -0.10567891, 0.0032999814, 0.048763193, -0.042363152, 0.25985426, 0.014876684, 0.057629336, -0.008274873, 0.025395947, 0.028120358, 0.13547328, -0.032192126, -0.056457296, -0.038979534, -0.03196991, 0.04822565, 0.024935432, -0.0037379207, -0.095039114, 0.0587583, -0.10670319, 0.054859716, -0.061313402, -0.15549517, 0.15950769, -0.046159253, 0.074504815, 0.06982762, 0.07849921, 0.05032171, -0.28680214, -0.017673245, 0.04888977, 0.08137721, -0.02694834, -0.19479842, 0.069109745, -0.051760525, 0.03322624, -0.07155911, -0.008687803, -0.09703908, 0.07655102, 0.005240209, -0.08067348, 0.14626211, -0.020490631, 0.0047427258}, 
{-0.061624955, 0.08198744, 0.012790915, 0.06190924, -0.055356555, 0.012455898, 0.12275506, -0.058615368, 0.083087094, 0.2608686, 0.047118798, -0.055293374, -0.09312261, 0.046019856, -0.028272724, 0.045709137, 0.04927269, -0.015585706, -0.009437069, -0.07783371, -0.14757763, -0.0518721, 0.047358103, -0.08690943, -0.050262053, -0.20190409, 0.09457257, 0.05470993, 0.036030576, 0.059391703, -0.018410968, -0.029108569, -0.07527972, -0.049749613, 0.045850713, 0.08713255, 0.098570764, -0.031181358, 0.09992917, 0.06432298, -0.008095536, -0.025428873, 0.20596926, -0.19029118, 0.026547194, -0.07920267, -0.04060422, -0.047366854, -0.03561196, -0.0034268566, 0.035908364, 0.0856199, -0.14620712, 0.061013304, -0.06252813, -0.106530905, 0.113041535, -0.12591314, 0.01565222, 0.11095095, -0.038752623, -0.038721133, -0.1630222, -0.09009847, -0.09267551, -0.03750926, -0.0739246, -0.14296088, -0.022568375, 0.007690544, 0.014485914, -0.054124083, 0.06912351, 0.024694681, -0.026779396, 0.0105344085, 0.03628108, 0.11398884, -0.07302244, 0.036564287}, 
{-0.07734364, 0.043801185, 0.03742063, 0.008470386, -0.051227625, 0.12055114, 0.09963369, 0.036392707, 0.043933008, 0.081153296, -0.033769965, 0.062176403, -0.030955302, -0.06797708, 0.05113138, 0.020672813, -0.067028776, -0.08270942, -0.05737282, -0.07500592, -0.16546834, 0.024391683, -0.094983995, -0.05217872, -0.08847368, -0.17152819, -0.0030744672, -3.890407e-05, -0.00031890953, -0.048969775, -0.08193184, 0.0068348385, -0.010707766, 0.049742613, 0.00016948982, -0.009252854, 0.24638548, 0.050433565, 0.16624404, -0.046482358, 0.014921123, -0.0889601, 0.19232036, -0.11837128, -0.05001461, 0.07186607, -0.0061323536, 0.052961297, 0.06605056, -0.07954857, -0.10090687, 0.0838607, -0.03371259, -0.08585703, 0.022108585, -0.056871884, 0.10810202, -0.04960948, 0.01710537, 0.029610552, 0.047141753, -0.03390377, -0.11520839, -0.08566514, 0.04678353, 0.020734848, 0.004813038, -0.018314475, -0.07836513, -0.014253843, -0.0006205084, -0.018556975, -0.060084846, -0.044483505, -0.058156006, 0.0266397, -0.047893245, 0.1806391, 0.0890762, 0.07298477}, 
{-0.1442051, 0.07120695, 0.031620752, -0.07607615, 0.006775419, 0.07877734, 0.011278399, -0.06424404, -0.018782424, 0.20728153, -0.046553474, 0.014279596, -0.13350599, 0.026279325, 0.018232467, 0.09890062, -0.041196913, 0.038734443, -0.07762618, -0.008265372, -0.0699122, 0.020116517, -0.04872172, -0.12657489, -0.045285217, -0.092889115, -0.01306548, 0.022498885, 0.036778633, -0.033944193, -0.014459564, 0.051423933, -0.035734568, -0.0051989234, -0.06932638, -0.059442833, 0.14609411, -0.039174158, 0.014155929, -0.081331916, -0.036946923, -0.070523314, 0.15640573, 0.06432212, 0.0156454, -0.06864582, -0.018614797, -0.060561135, 0.060951427, 0.0048799873, 0.062339496, 0.07635482, 0.009759101, -0.084365584, -0.031986363, -0.12843136, 0.1467782, 0.005470519, -0.05092733, 0.11564396, -0.031419285, -0.014249428, -0.22258863, 0.08790997, -0.007462888, 0.078949176, -0.09060054, -0.13329524, -0.092146896, -0.049935374, -0.021145552, -0.005125873, 0.008559802, -0.016501272, -0.021783104, -0.04574587, -0.012197655, 0.078253284, -0.09069907, 0.14591657}, 
{-0.005565774, 0.06086202, -0.08406129, -0.08577027, -0.0650811, 0.19901623, -0.013373746, -0.08905192, 0.0798185, 0.18242729, 0.04283681, -0.07932548, -0.06989597, 0.07656297, 0.12529366, -0.044994786, 0.060119543, -0.09025834, 0.09537495, -0.046266835, -0.06088567, 0.0008002113, -0.08357377, -0.10024443, -0.032772984, -0.08549532, -0.012909949, 0.012405068, -0.016983273, 0.08320325, 0.022961063, 0.0007914655, -0.1002223, 0.08646681, -0.078936644, 0.025127113, 0.20471852, -0.037618157, 0.12155775, 0.08369149, -0.005678613, -0.03789218, 0.15256415, 0.18496592, 0.034509875, -0.043634064, -0.09824036, -0.0892485, 0.06629819, 0.004209041, 0.04171856, 0.05516265, 0.007961572, -0.021193221, -0.036232937, -0.05026744, 0.21157888, -0.009945431, 0.08535184, -0.03853008, -0.07117943, 0.003460086, -0.10509149, 0.022427797, 0.03723452, 0.13255271, 0.01958108, -0.14473902, 0.0035591573, -0.0772559, -0.020162467, 0.034278117, -0.027497943, -0.07081161, -0.04009515, -0.0594722, 0.04345535, 0.12801316, 0.033843435, 0.063099496}, 
{-0.02672144, 0.23219657, 0.01796918, 0.08269026, -0.051202405, 0.18001539, -0.16590357, 0.06642924, 0.037309185, 0.043540888, 0.055856586, 0.05635816, 0.0890136, -0.074953064, 0.20669557, -0.0030057468, -0.08247767, -0.029783048, -0.005715452, 0.01587945, -0.17151895, -0.008544476, -0.046165667, -0.045487944, 0.024670612, 0.039765, 0.013427727, -0.05117818, 0.0067872507, 0.048960645, -0.059940092, 0.16762546, -0.1964398, -0.036407787, -0.07890115, 0.015525147, 0.14813428, 0.0013364782, 0.19297351, -0.07856867, 0.020987805, 0.11287886, 0.043786734, 0.18395889, -0.051597744, -0.072567716, -0.027358864, 0.054826535, -0.039425354, -0.010109314, -0.043011695, 0.10001913, -0.05237622, 0.054798964, -0.046014722, -0.18568638, 0.14681979, -0.06985066, -0.05922938, -0.052952982, -0.09754933, -0.028273141, -0.10619699, -0.039854653, 0.07528797, 0.10717187, 0.040253602, -0.0344467, 0.004321687, 0.035160255, -0.14599392, 0.09291539, -0.0053426097, -0.033689898, -0.086882785, -0.024081036, 0.036794044, 0.10349753, 0.068435706, 0.18967424}, 
{-0.22208172, 0.24818788, 0.052012917, 0.001072963, 0.07939801, 0.094100825, -0.06446111, 0.0095769465, 0.063037835, 0.2471245, -0.038546227, -0.09748077, -0.07432213, -0.07403779, 0.18790372, -0.040576536, 0.030167244, -0.090008505, -0.09087535, 0.04773195, -0.36421004, -0.052887175, -0.08569895, -0.1450165, -0.061537247, 0.02727052, 0.0183677, 0.00032205277, -0.12007745, 0.042040028, -0.049472965, 0.09848675, -0.11515296, -0.047759864, 0.030873187, -0.05285949, 0.3485073, 0.008647492, 0.2390851, -0.029685648, -0.09129791, 0.08351936, 0.12926017, 0.2011296, 0.032534786, -0.07133698, -0.10972596, 0.06825494, 0.020450203, 0.047562588, 0.076676056, -0.00855089, -0.12719023, 0.019417204, 0.0197481, -0.33326435, 0.13230649, -0.09932307, 0.086438246, -0.111644804, -0.036286432, -0.032075256, -0.16669182, -0.07862663, -0.0285797, 0.27922544, -0.058787543, -0.22780113, 0.03952705, -0.06579826, -0.21488598, 0.059558533, -0.01222064, 0.055461768, 0.0076488005, 0.0077360105, -0.015241332, -0.07352628, 0.08735091, 0.2279953}, 
{-0.45934775, 0.16585647, 0.038153138, 0.053507634, 0.053408347, -0.28495133, -0.0127325915, 0.027690211, 0.07302985, 0.40488163, -0.059609264, -0.027552482, -0.5053062, 0.040393077, 0.24841976, 0.08056897, 0.027759513, -0.050559204, 0.08782425, 0.043694317, -0.52096134, -0.021438336, -0.031260997, -0.2696485, 0.052461825, -0.38385302, -0.010726564, -0.009843225, -0.087993, -0.060213078, -0.048375543, -0.2009499, -0.09445438, 0.035297073, 0.024513004, 0.091660224, 0.6072045, -0.025383646, 0.4663952, 0.0674855, 0.042735163, -0.10418703, 0.37951338, -0.19379129, 0.059663855, -0.018330919, -0.46760118, -0.06861263, -0.21287395, 0.043463416, -0.06855051, 0.16849457, -0.18379104, 0.05106293, -0.023846626, -0.5593201, 0.33168644, -0.29392588, 0.018247727, 0.081526086, 0.06547094, -0.042337388, -0.55236155, 0.060917065, -0.09473701, 0.32057518, -0.012428172, -0.28054702, 0.056653254, 0.021527147, -0.083960876, 0.061131723, -0.04797188, 0.007494073, 0.029360846, -0.023531735, -0.04316043, -0.077461496, -0.04500578, 0.21796548}, 
{-0.1781572, -0.033210237, -0.03314852, 0.012836212, 0.05476135, -0.17186432, -0.052864652, 0.08320798, -0.057137415, 0.2344192, 0.09015997, -0.027444305, -0.23033798, 0.07749801, -0.07639925, -0.059355803, 0.026712026, 0.07341274, 0.016346842, -0.082552314, -0.098946154, -0.037224516, 0.017633215, -0.3173153, 0.026261318, -0.3153408, 0.047661565, -0.08704914, -0.1838426, 0.022056604, -0.0023307884, -0.13581832, -0.008795414, -0.077618666, 0.037606433, 0.058884464, 0.15924853, -5.6777175e-05, 0.19383597, 0.046989646, -0.08100558, -0.15977438, 0.1273606, 0.11341281, 0.009601176, -0.0051546204, -0.04003561, -0.07672217, 0.16870694, -0.004472828, 0.06216707, 0.23066273, -0.02143192, 0.06920875, 0.0052148253, -0.10412805, 0.2829353, -0.035653003, 0.041227162, 0.0021207626, -0.103876345, -0.07083082, -0.24086411, 0.07810586, -0.06978595, 0.06286147, 0.028542235, -0.18504807, 0.093650185, 0.042422198, 0.17134288, 0.07793047, -0.04681491, 0.039283678, 0.0825743, -0.047727894, -0.051024556, 0.12282518, -0.041405693, 0.015546218}, 
{0.04615697, 0.5016518, -0.071803994, -0.07848057, -0.06806688, 0.37651446, -0.24615322, 0.07400127, 0.08355576, -0.11385067, -0.050687842, -0.06205617, 0.30403477, -0.030837042, 0.21553627, -0.25359428, -0.024291359, 0.06339211, 0.0049571395, 0.030329632, -0.32629538, -0.022481581, 0.0009834543, -0.011349434, 0.014470713, 0.23299292, -0.0767364, -0.05037788, -0.2873644, 0.07510207, -0.05809307, 0.4097806, -0.32782435, -0.040582627, -0.029689942, -0.021658957, 0.1984062, -0.007474798, 0.32758597, 0.05358743, 0.004908101, -0.02306515, -0.29639906, 0.35391918, 0.086305164, -0.04740411, 0.039703697, 0.05987791, 0.25954708, 0.06752647, -0.042834282, 0.16692562, 0.11102508, 0.027734311, 0.04645755, -0.3461102, 0.49233258, 0.1200226, 0.011174914, -0.6472948, -0.021961095, -0.050445035, 0.043711573, -0.09219148, -0.008909303, 0.3813404, -0.004091963, -0.33079907, 0.07360818, -0.017074209, -0.25242853, -0.093368806, -0.014987852, 0.03393866, -0.06837941, 0.0035714898, 0.0639364, 0.29060546, -0.056204356, 0.53505725}, 
{0.12340841, 0.32041383, 0.059478503, -0.06019476, -0.09978179, 0.08663395, 0.06895533, -0.05726122, -0.06544706, -0.076195806, 0.025634581, 0.029890915, 0.23336188, 0.087427184, -0.02481792, -0.38188833, 0.08317163, 0.008989453, -0.026533283, -0.06321654, 0.03499211, 0.03545371, 0.04171557, -0.30559078, -0.029223872, 0.23141259, -0.093930475, -0.04313535, -0.18558192, 0.03931686, 0.048113007, 0.22213751, 0.20759894, 0.008892605, -0.07870645, 0.062022828, 0.15911637, -0.024315767, 0.28958413, -0.014641899, -0.0008267377, -0.3538319, -0.23848297, 0.09232693, 0.05714517, -0.050187573, 0.24457641, 0.020101659, 0.2646304, -0.05820637, -0.08374793, 0.23273286, 0.030748095, -0.04798635, -0.05409043, -0.090818994, 0.028644389, 0.23697968, 0.023145448, -0.29926264, -0.0074417964, -0.0647335, -0.09113077, 0.07424249, 0.001429558, 0.059700176, -0.041337058, -0.25037903, 0.0941092, -0.09313753, 0.055554, 0.039366387, 0.025435722, 0.036392182, -0.016941993, 0.29585984, -0.07604614, 0.18972038, -0.075183935, 0.34004092}, 
{0.15993163, 0.16660233, 0.021891465, 0.08475189, -0.009536669, 0.2966766, 0.12544928, -0.085582465, 0.004629223, -0.09855856, -0.008885954, 0.061442956, 0.31270063, 0.012153838, -0.25154257, -0.2821542, -0.08722815, 0.06896236, -0.07467961, -0.065094054, 0.016611328, -0.012367149, 0.017400384, -0.16367292, -0.016588412, 0.14724334, -0.03060048, -0.09789095, -0.2065506, 0.010011143, -0.044434544, 0.21267134, 0.25443286, -0.00019947, -0.045834254, -0.033919886, 0.008656145, -0.03578265, 0.096616775, 0.085374884, 0.07178062, -0.41100314, 0.020859169, -0.0823724, 0.045705624, -0.08883082, 0.1710659, 0.095125966, 0.28682357, 0.070702896, 0.036172025, 0.24583209, 0.10771586, -0.021326533, -0.046038482, 0.05161636, -0.3584938, 0.33705842, -0.042292837, 0.13418655, -0.07712352, -0.020432455, -0.06844085, -0.00366921, 0.04982316, -0.005328479, -0.035027217, -0.14543343, 0.004945904, 0.0039128596, 0.2005566, -0.05788232, 0.020378025, 0.034109738, 0.053749748, 0.3347477, -0.09081457, -0.09576466, 0.035293795, 0.11479083}, 
{-0.056618333, -0.008687208, -0.091116056, -0.0019883919, 0.06514667, 0.1393914, -0.042528704, 0.060785018, 0.06163189, -0.015919954, -0.043218244, -0.05854082, 0.11264096, 0.08561325, 0.013760019, -0.15223506, 0.027926186, -0.06594382, 0.085708834, -0.02662345, 0.08206248, 0.075826004, -0.07494557, 0.03963323, -0.084279366, 0.019412583, -0.038270712, 0.06504227, -0.09544232, -0.05191788, 0.06324415, 0.10409461, 0.054569107, 0.07922386, -0.037007928, -0.04552075, -0.012171617, -0.07954625, 0.040014304, 0.035568744, 0.0683433, 0.022890884, -0.14695536, 0.030775025, 0.08358846, -0.069583, 0.111738086, -0.094766244, 0.11517507, 0.042059753, -0.06864465, 0.08509554, 0.114270285, -0.04174045, 0.033299096, -0.0952386, -0.124935284, 0.12476179, -0.08848588, -0.030090097, 0.037129197, 0.06813564, -0.08469102, 0.047738034, 0.011273995, 0.024653908, 0.07759147, -0.023153823, 0.03816495, 0.039020613, 0.023868497, -0.05348035, -0.09524138, -0.015330888, -0.047226142, -0.010573097, 0.028696798, 0.2245143, 0.017229281, 0.12776096}, 
{-0.046154667, -0.14443949, -0.0153834885, 0.03616177, -0.008665293, 0.06289269, 0.12003886, -0.0800857, -0.044879172, 0.083433054, -0.020806331, 0.031733762, -0.23279223, -0.024181087, -0.036355063, 0.07007704, -0.04773847, -0.094197735, -0.055391096, 0.08166843, -0.053000044, -0.099505045, -0.01908125, -0.10493226, 0.022631044, -0.09537447, -0.06727338, 0.030309947, -0.0033949523, -0.09047516, -0.0058560763, -0.22265975, 0.050829653, 0.011477149, 0.06465168, -0.03532348, 0.0768827, 0.03650423, 0.088019736, 0.04880443, 0.07937507, -0.009072223, 0.23663896, -0.10769588, -0.06489472, 0.08293165, -0.17413257, 0.08976457, -0.087295726, -0.09947783, -0.060972862, 0.1133535, -0.14976592, 0.05597564, 0.08905231, 0.051940348, -0.26989046, -0.1202674, 0.06416648, 0.33549553, 0.051183607, -0.07392942, -0.10447139, 0.055646684, -0.0297245, -0.048083544, -0.009758323, -0.023790956, -0.02022171, -0.00640005, 0.042689346, 0.038526617, 0.034852903, -0.07197692, 0.007431707, 0.015400714, -0.06689908, -0.015420907, 0.03130085, -0.1332617}, 
{-0.34266397, -0.1108507, 0.081789486, 0.033386983, -0.06581271, -0.08993994, 0.0878529, -0.06805025, -0.08845803, 0.6136845, -0.018564988, -0.058233924, -0.636075, 0.08409738, -0.083989464, 0.1750218, 0.07681822, -0.038737822, 0.0031258613, 0.08294239, -0.31695908, -0.019346032, 0.045467965, -0.19874148, 0.06723155, -0.499259, -0.076056845, 0.05307592, 0.013117504, -0.0886739, -0.08620828, -0.352776, -0.022332225, -0.058140457, -0.06534175, -0.019193456, 0.42981538, 0.01438802, 0.33808744, -0.07955386, -0.101413175, -0.14674832, 0.5942841, -0.47858137, 0.018455394, 0.002485117, -0.4446012, -0.030722246, -0.17190203, 0.041309733, 0.08565872, 0.28606227, -0.18167582, 0.08253748, 0.08664989, -0.24956444, -0.2537128, -0.27926072, 0.08166046, 0.5011618, -0.08701662, -0.06703297, -0.4640623, 0.04999278, -0.027453838, 0.07956076, 0.042171277, -0.19794984, 0.04074826, 0.036279295, 0.22993304, 0.04707595, 0.07364352, 0.078712374, 0.022604955, 0.08259466, 0.09724264, -0.0958452, 0.0765494, -0.07000379}, 
{-0.11610481, 0.09608277, -0.07530584, 0.048040885, 0.0054615536, -0.19711167, -0.2565329, -0.0070194067, 0.08126777, 0.22529423, 0.03601462, -0.032167, -0.2409391, 0.068355866, 0.1251004, 0.08431324, -0.0035648278, 0.035642467, -0.065643, 0.036436353, -0.049581632, 0.00010872059, -0.080255285, -0.051059317, -0.051810246, -0.2122097, -0.023341551, 0.00904737, 0.02860438, 0.051017713, 0.059669357, 0.07308606, -0.06816319, -0.041967973, -0.08221883, -0.051612247, -0.09905684, 0.029467454, -0.008822945, -0.022636645, 0.0044225375, 0.034364197, 0.051458284, 0.10956877, -0.055639155, 0.055082656, 0.06580672, 0.0015967414, 0.02496829, -0.040010925, -0.017643528, 0.10688839, 0.2478405, -0.094985634, -0.07938833, -0.03874818, -0.063893735, -0.061736472, 0.05027235, 0.213859, 0.076096386, -0.014292397, -0.09114214, 0.047513213, -0.067937, 0.011395258, -0.067548, -0.043235574, -0.08527397, 0.07572306, -0.007585262, 0.03039784, -0.07046161, -0.09159508, -0.084778264, -0.12098831, 0.009308358, -0.068132475, 0.042658083, -0.023516744}, 
{0.0103754755, 0.21454489, -0.05121399, -0.012284592, 0.043838196, -0.055792708, -0.07506601, -0.026978586, 0.0083045745, 0.054893915, 0.021895977, -0.03975724, -0.051140472, 0.06061767, 0.0037102527, -0.05151417, 0.02734763, -0.07106683, 0.06403629, 0.066174306, -0.06464346, -0.0066413796, 0.005878918, -0.20149629, 0.038241446, -0.03173262, -0.07375614, 0.018151252, -0.11319678, 0.06243458, 0.08034754, 0.1216099, 0.03919605, 0.058321547, -0.041868307, -0.016237445, -0.049686678, -0.04666383, -0.01519255, -0.02394109, -0.072915845, -0.0957823, -0.07298831, 0.06248068, 0.046582185, 0.075186186, 0.040358916, -0.031568296, 0.120753475, 0.022710329, -0.00018732472, 0.23003753, 0.2721222, 0.013377437, 0.042206936, 0.010905338, 0.016665455, -0.04029966, -0.085916676, 0.025293905, 0.02556867, -0.039378755, -0.027222224, -0.0067708916, 0.021669112, 0.22131135, -0.015026204, -0.11297033, 0.045328997, 0.046940763, 0.069035694, 0.059538238, 0.045807723, 0.026795652, -0.094101, -0.12199965, -0.0934526, -0.000112919966, -0.05012187, 0.12661485}, 
{-0.17852844, 0.03636914, -0.086814314, 0.021761939, 0.043031964, -0.17932546, -0.19633672, -0.09231342, 0.07348996, 0.026815778, -0.053264126, 0.066598535, -0.12096678, -0.09061757, 0.11652848, -0.15028909, -0.059477348, 0.028332986, -0.078686886, -0.019203791, -0.06949134, -0.07603966, 0.052896015, -0.031219317, -0.04286531, -0.10295586, 0.0014389828, -0.049064737, -0.19615959, -0.06720917, -0.03580378, 0.07931079, -0.10355524, 0.05121557, 0.051517174, 0.09229144, -0.031963743, 0.05569348, -0.11949637, 0.0013192815, 0.012940597, -0.056338064, 0.037062686, 0.21245477, 0.016771957, -0.07476854, 0.16931693, -0.041592505, 0.14507501, -0.010221039, 0.0016848361, 0.21879198, 0.2327004, -0.033713985, 0.046977557, -0.12335083, 0.05070574, 0.06151839, -0.04707368, 0.107219376, -0.09842337, -0.030608023, 0.06256932, 0.053801663, -0.06859363, 0.057359856, 0.07121054, 0.012761649, -0.07786526, -0.06602748, 0.10906523, -0.031071909, -0.032179106, 0.058083594, 0.03557784, -0.15326543, -0.0769787, 0.039275523, 0.06741073, 0.047786485}, 
{-0.08716643, 0.10078924, -0.0038928448, 0.01495755, -0.066266745, -0.044693664, -0.012772016, 0.0633519, -0.051191892, -0.020073194, 0.037221167, -0.0018530376, 0.029021712, 0.03438946, 0.10906406, -0.10193805, -0.09020874, -0.05835828, -0.057605535, -0.055056702, -0.03913571, -0.04226703, -0.0620213, 0.007036746, -0.034704797, -0.06577358, -0.06900481, 0.08407253, -0.15665436, -0.069937885, -0.09353853, -0.022501111, -0.08090795, -0.08389427, 0.06856891, -0.0077596307, 0.0016926255, -0.032197896, -0.016930398, -0.09250537, 0.084855065, 0.037571985, 0.01933144, 0.10650765, -0.07645617, 0.032286104, -0.02585267, 0.09161175, 0.06241412, 0.07132229, -0.08752875, 0.20834737, 0.08998918, -0.09255212, 0.03010311, -0.14645627, 0.06653487, -0.10024247, 0.041404627, 0.075243264, 0.07253101, -0.059195362, -0.109773934, 0.06652599, -0.058046333, 0.122958474, -0.04660968, 0.0018498373, -0.06066805, 0.03740025, -0.02198466, -0.048685554, -0.046791423, 0.08831984, 0.081286736, 0.019599726, -0.06490317, 0.13157465, 0.06317162, 0.060313523}, 
{-0.17968848, 0.21100284, 0.004011779, -0.00067975285, -0.020467853, 0.02889885, -0.1953973, -0.025161687, -0.096850134, 0.020557707, -0.044289794, 0.0021291068, -0.13355832, -0.0076830788, 0.119928256, -0.03902147, 0.08359651, 0.025015779, 0.07776374, 0.08756489, 0.00011171232, -0.043064944, -0.07642064, 0.047794774, 0.059186842, -0.022832576, -0.07173748, -0.088273644, 0.078956634, -0.100358956, -0.0010967212, 0.093506016, -0.08384181, -0.033189405, -0.034486666, 0.03425082, 0.118748166, 0.03473253, 0.10602757, 0.051476207, 0.0050216136, 0.029581724, 0.052313317, 0.020250011, 0.05447539, -0.08900843, -0.10587647, 0.012484565, -0.08366738, -0.07281306, 0.048016835, 0.09520068, -0.008833206, -0.008428921, 0.048989363, -0.19765483, -0.020826012, -0.13333225, -0.084951304, 0.082605146, -0.056395672, 0.07327511, 0.056832075, -0.093790956, 0.028712606, 0.1784748, 0.009994797, -0.05516941, -0.007135667, -0.008072432, 0.034009725, -0.06163178, -0.03194995, 0.018276412, 0.07474821, -0.15513058, 0.03329823, 0.088156566, -0.060210243, 0.15364279}, 
{-0.1540742, 0.20527567, 0.035904374, -0.009548511, 0.08619603, -0.101340555, -0.051347136, -0.055476848, -0.06957237, 0.13698208, -0.0934824, 0.0057425317, -0.06727643, -0.041454345, 0.2548749, 0.12705243, -0.09210034, -0.030090004, 0.073185064, 0.0067953956, -0.13809785, -0.045218695, -0.07860179, 0.17343447, 0.036689073, -0.061446954, -0.048769213, -0.0037408478, 0.10881613, -0.09774008, 0.009572763, 0.14733168, -0.18208303, -0.028739968, 0.06118723, -0.00050365925, -0.021466043, 0.065875515, 0.09064966, -0.040257588, 0.042187475, 0.16677977, -0.078916125, 0.05829891, -0.08946204, 0.037907932, -0.060254075, -0.05753526, -0.010847957, 0.02443059, 0.07549587, -0.06695713, -0.051461108, -0.0489492, 0.060368054, -0.17678581, 0.0038347493, -0.21122773, 0.018834164, 0.059957866, 0.05736199, -0.0928758, -0.05495362, 0.062319417, -0.04364394, 0.15837167, 0.083657555, 0.046383068, 0.07914186, 0.02813339, -0.13571179, 0.07632967, 0.0460934, -0.06000004, -0.08988781, -0.081134036, -0.041433364, 0.16528891, -0.09413644, 0.09155254}, 
{-0.1211319, 0.18416524, -0.01041705, -0.027536966, 0.012593957, -0.02542137, -0.21263057, -0.08171179, 0.060030013, -0.0004018122, 0.07275112, -0.08715128, -0.11764364, 0.052929923, 0.25132725, 0.050803874, -0.0023967847, 0.04337918, -0.029369473, 0.044046987, -0.102704406, 0.005534355, -0.036499374, 0.12003799, -0.025275804, -0.017188009, -0.0061865076, 0.033952408, 0.037350647, 0.04877498, 0.027860451, 0.11797244, -0.15673308, 0.018243566, -0.096743196, 0.08806545, 0.041311707, 0.011933821, 0.11624185, 0.01018106, -0.08397209, 0.111508854, -0.005783018, 0.009913732, 0.043381445, -0.00042872285, -0.03968053, 0.090150215, -0.1311263, 0.064942315, 0.044721726, -0.038467553, -0.043936137, -0.09958152, 0.09551527, -0.06592931, 0.007826918, -0.14294142, 0.01772527, 0.08367521, -0.023378216, -0.0104415035, 0.044669487, -0.013866411, 0.04228778, 0.1347478, 0.020192437, 0.051641934, 0.0373135, -0.065738864, -0.044267677, 0.07917457, -0.007311874, -0.0355569, 0.026087714, -0.022965888, 0.006644073, 0.26172072, 0.08159161, 0.1202396}, 
{-0.1847226, 0.06676859, -0.013300389, -0.02938963, -0.002492207, -0.08710604, -0.18334363, 0.0074859965, 0.0043920088, -0.0030862112, -0.0841155, 0.03072056, -0.18953846, -0.08120703, 0.1074801, 0.0587699, -0.027143268, -0.002250284, 0.08383838, -0.070085354, -0.09946646, 0.026550062, -0.025471188, 0.086881734, 0.024674114, -0.033546504, 0.091706626, -0.06502124, 0.07589923, 0.04019048, 0.055378705, 0.011381653, -0.13951577, -0.014590128, 0.07573038, -0.010170296, 0.0034772125, -0.09992656, -0.051563777, -0.07507308, 0.029927768, 0.124240674, 0.07687198, 0.14810434, -0.044275105, -0.026260117, -0.13141994, -0.050046783, -0.021690115, -0.0058517186, -0.03926139, 0.034588385, 0.08624815, -0.018115608, -0.093310386, -0.1193471, 0.027921129, -0.15523769, 0.03554518, 0.04274014, 0.056351528, -0.015306091, -0.021521037, 0.058344573, -0.03561346, 0.16118772, -0.0139286965, 0.07665561, 0.01260867, 0.059534594, -0.012684604, 0.0498249, -0.048146293, -0.026031587, 0.033173162, -0.18093511, 0.056735173, 0.11676782, -0.0919075, 0.16296099}, 
{-0.115095355, 0.14157066, -0.0043118247, 0.048598684, 0.0012937292, 0.09166665, -0.12583199, 0.08392014, 0.03805225, 0.025957728, -0.02654576, 0.0758312, -0.023165895, 0.03994837, 0.12645453, 0.007922708, -0.08088047, 0.0003772527, 0.015712276, 0.07101623, 0.046688918, -0.070323475, 0.06609044, 0.17114812, -0.033894524, 0.100676164, -0.08170038, 0.07576114, 0.0010837798, 0.07337716, 0.025198504, 0.08799713, -0.030719612, -0.035081275, -0.09065647, 0.06896538, -0.07564603, -0.02672354, 0.016633533, 0.034534097, 0.04727757, 0.012757779, 0.018748512, 0.12187725, 0.08903321, 0.018067619, -0.001364375, -0.0009782538, -0.017300667, 0.0005843233, 0.017976252, -0.106469184, 0.044949736, -0.066912755, 0.003815651, -0.05176428, 0.17576899, 0.014858288, 0.06659767, -0.09970844, -0.091464534, 0.041129474, 0.058773044, 0.07082212, 0.071903825, 0.15996617, 0.018818304, -0.06563164, 0.0068553463, -0.060580797, -0.086493336, -0.0025372654, -0.03441531, -0.09308903, -0.020132812, -0.122534834, -0.052048765, 0.24475777, -0.069067106, 0.097773634}, 
{0.08476972, 0.00044750964, 0.067737065, 0.049043477, 0.018918417, 0.05546668, 0.0521066, -0.007220054, -0.08233708, -0.09662211, 0.062521264, -0.08280775, 0.14388129, -0.02451122, 0.09438514, -0.08423337, 0.07620435, 0.027630769, -0.07573897, 0.027966863, 0.05205054, 0.080154754, -0.033844844, 0.09353525, 0.0036067553, 0.1291321, -0.0013464987, -0.02933514, -0.023387574, -0.039737526, -0.092587985, -0.01302614, -0.058298275, 0.0006072363, -0.016492905, -0.0124056935, 0.048867114, -0.0877494, -0.0046234764, -0.04670289, 0.043392323, 0.07524875, -0.016431607, -0.031807043, -0.04999197, 0.008679835, 0.07706851, -0.06216331, 0.022748867, 0.0047604404, -0.080683924, 0.020286886, 0.059676204, 0.05486052, 0.045081772, -0.046366695, 0.1635155, 0.103066616, 0.040974732, 0.05736203, 0.05609709, -0.08609842, 0.15024702, 0.06405074, -0.0596867, 0.05394162, 0.052729405, 0.1176118, -0.044502366, 0.039180797, 0.017176727, -0.016700357, 0.007462318, -0.0279152, 0.053719606, -0.029076727, -0.009762659, 0.13084432, 0.03705477, -0.033566583}, 
{0.11227826, -0.04054966, 0.037837613, 0.0042143967, 0.03109485, 0.08374836, 0.011980806, -0.04078058, 0.026702974, -0.13854201, -0.09603008, 0.06757875, 0.09356545, -0.040230148, 0.020917092, -0.039751954, 0.013902367, 0.026998848, -0.028227419, -0.0655081, 0.012451037, -0.03937975, 0.020430207, 0.110502906, 0.08077291, 0.028298106, -0.09111693, 0.026183652, 0.12926638, -0.008871194, 0.044706583, 0.11865415, 0.006519026, 0.04195955, 0.032381967, 0.021797046, -0.026661549, -0.07188914, -0.104569465, -0.02925795, 0.0128261475, -0.045304332, -0.0601873, 0.029121544, -0.01635439, -0.012804337, 0.08402586, 0.007938579, 0.024352465, -0.0830914, -0.092689715, -0.018232305, -0.040128186, 0.014457009, 0.022822887, 0.033820152, 0.12451052, -0.012381491, -0.03323821, -0.008267775, -0.017105049, 0.031474542, 0.05603109, -0.053102203, -0.07053818, -0.012441976, 0.089864664, -0.013682341, -0.027332775, 0.06582839, -0.07351189, 0.067801274, 0.009829263, -0.0010507572, -0.06000441, 0.009382557, 0.052931596, 0.05848268, -0.089045316, 0.035633}, 
{0.17638083, 0.083064266, -0.0016569525, 0.053161167, 0.08288801, 0.02219002, 0.13518171, -0.023316095, -0.04844051, -0.095157646, 0.012839787, -0.06453764, 0.012779148, -0.076790996, 0.09089836, -0.027412256, -0.038572725, -0.043534897, 0.060370557, -0.07032548, 0.06677525, -0.09482408, 0.052402712, 0.10584489, -0.077025354, 0.124704406, 0.07704196, -0.022719353, 0.08215668, 0.029687503, 0.054900736, 0.07803948, 0.028773205, -0.041252434, -0.021030191, -0.02332224, -0.02255126, 0.04057144, -0.0011421348, 0.026246348, -0.08709912, 0.050315723, -0.017779592, 0.035521854, -0.06350923, -0.029904969, -0.053258643, 0.03561283, 0.041214146, -0.003926199, -0.09643284, -0.0067247786, -0.053044822, 0.06785998, 0.094214015, 0.047924332, 0.11002214, 0.008320253, 0.025992943, 0.0071515534, -0.04453684, 0.0047813556, 0.08900663, 0.050319184, -0.059296403, -0.06730856, 0.0126487985, -0.021816501, 0.015457541, 0.030551864, -0.08761296, -0.034934483, 0.0273394, -0.013255128, 0.014297446, 0.14178298, -0.0036352188, 0.046280134, -0.026823021, 0.08485934}, 
{0.02357955, 0.0609691, 0.060235616, 9.673172e-05, 0.031133784, 0.13487281, 0.017112292, 0.06685532, -0.06766422, -0.027243331, 0.07324218, -0.086184196, 0.13081786, -0.051562276, 0.10449214, 0.007401688, 0.06925021, -0.04395994, 0.055498995, -0.058797948, 0.0064127566, 0.035107, 0.043170936, -0.05397456, 0.03855, 0.19488274, -0.0493004, 0.052642692, -0.031280052, 0.08169324, 0.01187157, -0.0010116153, -0.045923833, -0.07877792, 0.026621632, -0.005608946, -0.031065987, 0.059078865, -0.050284322, -0.083858915, -0.06114786, 0.0769042, 0.039238624, 0.09274765, -0.06519338, 0.008649397, 0.11678407, -0.093288615, 0.096132085, -0.03396395, -0.029994631, 0.038390424, -0.050988656, -0.017151786, -0.014817588, 0.09411606, 0.078722715, 0.05928066, -0.08383752, -0.08734026, 0.08484538, -0.08879186, 0.0074167405, -0.09788798, 0.05096067, 0.018054862, 0.08200852, -0.0057211183, -0.08991513, 0.070863426, -0.11849839, 0.012599371, -0.029700594, 0.0014702749, -0.020980168, 0.027199047, 0.042053454, 0.07751009, 0.06408071, 0.015337408}, 
{0.1432914, -0.025297284, 0.050303005, -0.07536261, 0.08117619, -0.072509095, -0.0064707245, 0.08922809, -0.055028, -0.030111711, 0.041504666, 0.04979523, 0.03176684, -0.09835465, 0.04806572, 0.063450396, 0.057110574, 0.007657163, 0.044735335, 0.075499274, -0.051832993, 0.007979741, 0.015063047, 0.0418607, -0.01850589, 0.06939255, 0.06489117, 0.018844098, -0.03859021, 0.0347572, -0.08424858, -0.07194549, 0.055780083, 0.07588549, -0.0838508, 0.03326375, -0.076219134, -0.05793018, 0.051470358, 0.01865335, -0.07463304, -0.10313506, -0.057905458, -0.017550422, -0.08744969, -0.05236155, 0.0354732, 0.006338574, 0.12205884, 0.008612279, -0.025357477, 0.020970125, -0.107147865, -0.06728485, 0.015137903, 0.06204, 0.0008709928, 0.05574336, 0.086600624, 0.035252765, -0.010466556, 0.071081825, -0.0042455895, -0.0050867978, -0.037710182, 0.044142026, -0.03330342, 0.08546676, -0.0561059, -0.09317857, 0.06674521, -0.010433637, -0.06735215, 0.050574865, 0.031891577, 0.16494225, 0.08036987, 0.14382158, 0.026133917, 0.05200289}, 
{0.06553397, -0.06555209, -0.051352188, 0.08808016, 0.07237874, 0.07174387, 0.08852419, 0.07479925, -0.03651848, 0.069572575, 0.062572636, 0.023637298, -0.013142992, -0.08476097, -0.042838197, 0.08464529, 0.0015945297, -0.014671527, -0.0039816275, 0.0540677, 0.01904675, 0.08718352, -0.06375967, 0.0029303571, 0.086934984, 0.022430807, 0.0005498156, -0.07848005, -0.05917482, 0.033109725, -0.07085908, -0.030220715, 0.057138734, -0.026885727, -0.09465542, 0.025927134, -0.041926645, 0.080372825, 0.04822401, 0.039903507, -0.0057276892, 0.01914348, 0.104013436, -0.09215828, 0.03555747, 0.084350385, 0.051573858, 0.07821304, 0.015001738, 0.02032281, -0.02371746, -0.007347303, -0.00027833122, -0.0072148265, -0.07162783, -0.0049546445, 0.089088716, -0.042564444, 0.026322313, -0.04400068, 0.060016807, -0.06775616, -0.041029066, -0.030041132, 0.05628037, -0.08404694, 0.08125324, 0.032060668, -0.026633844, -0.0021757442, -0.074435435, -0.006002158, -0.01667972, -0.033767942, 0.058143593, 0.035042305, 0.03007025, -0.0016685016, 0.044658415, 0.07451853}, 
{-0.0003481872, -0.055085175, -0.069031015, -0.069229, -0.009977909, -0.0027059345, 0.031934783, 0.07358232, -0.07018452, 0.07618927, -0.0965672, -0.052891452, -0.01960708, -0.05416003, 0.010515066, -0.005514893, 0.06677693, 0.033514343, -0.033959467, 0.0076668835, -0.036368076, -0.04640566, 0.0055627525, 0.0031232685, 0.077803895, -0.13231269, 0.043068327, 0.067996636, -0.0923386, 0.023707341, -0.098311335, 0.021737795, -0.06977263, -0.014187211, -0.09991587, 0.09288665, 0.018522626, -0.013318292, -0.017254565, -0.039590575, -0.05543221, -0.07580815, 0.07978319, -0.13328913, -0.08971598, -0.039561298, -0.1187749, -0.011435807, -0.030669576, 0.05666231, 0.057524033, 0.033531737, -0.05819569, 0.06638966, 0.08468758, -0.05244858, 0.07021504, 0.009685158, -0.073711604, 0.0072525344, -0.08335637, 0.006862579, -0.06713227, -0.04475826, -0.06638365, -0.06660903, 0.064392336, 0.0035903617, -0.00507842, -0.062713385, 0.036968976, 0.09144924, 0.0298687, -0.055974565, -0.03782634, 0.043947227, -0.07201058, 0.040816605, 0.018565953, 0.10763987}, 
{-0.23750672, 0.06814881, -0.07884492, 0.011237011, -0.07465251, -0.051313054, 0.025265554, 0.053385515, -0.042110648, 0.14700182, 0.029138146, 0.010218049, -0.25532085, -0.022435047, 0.110162795, 0.06461055, 0.05648075, -0.012413196, -0.03599984, 0.06411969, -0.1481507, 0.06341939, -0.091789894, 0.018341431, -0.0649498, -0.046899125, 0.023578413, -0.09832792, -0.0001622265, -0.04329749, -0.07327375, -0.12757438, -0.12879066, 0.041368473, -0.033426438, -0.0029387772, 0.069634445, -0.05945868, 0.07812523, 0.050450765, -0.09984231, 0.0688793, 0.05947669, -0.06145248, 0.05449664, 0.046086017, -0.046922456, -0.07468985, 0.0760809, -0.069019035, 0.07216268, 0.14083886, 0.0020096055, -0.009336771, -0.044709995, -0.052362457, 0.22192171, -0.03747226, -0.044146445, 0.06783608, -0.04052799, -0.07914156, -0.20867836, -0.045606174, -0.032424256, 0.030005272, 0.0324898, -0.016585557, 0.04305383, 0.056244824, 0.09259033, 0.013322428, -0.0008544846, 0.025964608, 0.037113503, 0.04179029, -0.059485056, 0.19611788, -0.007414803, 0.06149769}, 
{-0.017329311, -0.06881037, -0.041133445, -0.044235863, -0.018885499, 0.016548013, 0.034641728, -0.034098845, -0.0699407, 0.16949086, -0.0802321, 0.053615157, -0.20983712, -0.09762955, 0.10056208, 0.04844578, 0.08861701, 0.071521915, 0.049080662, -0.06058387, -0.080784395, 0.059817877, 0.0021568388, -0.06430181, 0.0064208247, -0.15963164, 0.079677545, 0.016511966, 0.08035909, 0.031153716, 0.06798379, -0.10552023, -0.12840156, 0.025450438, 0.06562276, -0.0004234016, 0.20978217, 0.006893572, 0.08614495, -0.09533731, 0.041575566, -0.077496864, 0.13321742, -0.15634279, 0.05375967, -0.06655804, -0.034135778, -0.016855843, 0.044276133, -0.010697729, 0.02076044, 0.05641148, -0.18098606, -0.09955905, 0.038242467, -0.19454698, 0.13166104, 0.002137097, 0.06259656, 0.11658151, 0.0133793475, -0.08078364, -0.108299404, 0.074448824, -0.07833801, 0.038184877, 0.061626486, -0.048447862, 0.032232367, 1.2200166e-05, -0.05099597, -0.033643257, -0.043425493, -0.043880317, -0.075739145, -0.0039468445, 0.047767676, 0.15808178, -0.0518829, 0.09092535}, 
{-0.04957183, -0.06992579, -0.013459514, 0.005572492, -0.039221983, 0.032307908, 0.028370408, 0.07459647, -0.058522973, 0.116044305, 0.036934953, 0.08531967, -0.15427662, 0.05123282, 0.10907424, 0.010608418, 0.06467496, -0.087128006, 0.025667988, 0.018417187, -0.09889156, 0.06450532, -0.013558693, 0.024594745, -0.06465869, -0.2010286, 0.029852577, -0.01972416, -0.057276685, -0.01423956, 0.022879934, -0.03984245, 0.045319766, -0.049460407, 0.005932392, 0.014116831, 0.16512127, -0.068917654, 0.0761863, 0.022659866, 0.04742729, 0.011119369, 0.05516521, -0.09505085, 0.052045174, -0.031594675, -0.03980867, -0.029946446, -0.061376743, -0.09406885, -0.047819216, 0.04624609, -0.08118664, -0.05965065, 0.05562029, -0.19144471, 0.070343345, -0.16998126, -0.047977787, 0.08374416, 0.05124674, 0.0047108033, -0.06896, 0.018596888, -0.09527971, -0.00463243, -0.052228, -0.09440477, -0.039813597, -0.076377995, -0.072160624, -0.0755382, 0.015891816, 0.05090393, -0.04475775, 0.024399482, -0.066068664, 0.064661585, -0.0037494376, -0.061079733}, 
{-0.118686736, 0.08002248, 0.0048378813, -0.08047473, -0.016178267, 0.05523049, -0.14258361, 0.04181452, -0.04147651, 0.13420606, 0.076016374, -0.014466109, -0.17465341, -0.038857225, -0.006263527, 0.0958268, 0.0866848, -0.064203724, -0.061142165, -0.017677093, -0.071116336, -0.100446224, 0.08935695, 0.026457556, -0.019687735, -0.020938564, 0.033970915, -0.07711559, -0.023180414, 0.031584647, 0.05175896, -0.11806033, -0.022547571, -0.09688141, -0.08879868, 0.027836509, 0.07897805, 0.038714908, 0.048293985, -0.011740423, -0.02289288, 0.08972471, 0.066447616, 0.005930974, -0.054401647, 0.06724597, -0.10663123, 0.073678024, 0.044725675, 0.05884028, -0.03446395, 0.17586002, -0.109599486, 0.0024925559, 0.091576464, -0.094070725, 0.2420899, -0.012505736, 0.07016199, 0.024736, 0.04390688, 0.031227313, -0.035120368, 0.02789207, 0.090045795, 0.05545484, -0.06378251, -0.028316334, 0.0009244457, -0.040640015, 0.033725087, 0.07926413, -0.026984824, 0.05873518, 0.01875347, 0.008656382, 0.040570423, 0.1759249, -0.03587019, 0.0033898382}, 
{-0.09839633, 0.015716802, 0.06707384, 0.05769978, -0.048048098, -0.016266668, -0.114150025, 0.036971893, 0.019383252, 0.12575981, -0.071077734, 0.004176524, -0.04870132, -0.08770582, 0.09790968, -0.01592518, -0.07109407, 0.0021157563, 0.018926017, -0.032555886, -0.08653255, -0.042827748, 0.013957195, -0.14306793, -0.081888855, -0.09310648, 0.027877524, -0.059123065, -0.047079626, -0.034510493, 0.06837363, 0.05902641, -0.026538532, -0.03126438, -0.015470321, -0.023427628, 0.1712447, 0.07175659, 0.011548375, 0.07237177, 0.07751298, -0.006501048, 0.04404618, 0.06801091, -0.020702615, -0.05736936, -0.005252133, -0.053309456, 0.090364836, 0.06633003, 0.08315912, 0.19548833, -0.053829476, 0.030654036, 0.02304896, -0.118379004, 0.26837194, -0.029265568, 0.07106104, -0.01769605, 0.07334246, -0.028236562, -0.12759127, -0.099786624, -0.031401847, -0.0004036085, -0.08465789, 0.016337914, 0.054272793, 0.008582856, 0.059277173, 0.08391883, 0.08330904, -0.028075518, -0.027936121, 0.049503, -0.09205171, 0.02105755, -0.076355636, -0.019329568}, 
{-0.0720402, -0.01450736, -0.05842702, -0.05759037, -0.09280703, 0.13660476, -0.026753705, -0.023170376, 0.041235756, 0.18162078, -0.013033687, 0.016508812, -0.016052283, -0.07213319, 0.032953646, -0.016272647, 0.088903286, 0.029514067, 0.094719864, 0.025583858, 0.038749952, 0.083983235, -0.034673408, -0.09271379, -0.028013239, -0.081725106, -0.027767375, -0.07807454, -0.07000315, -0.021818506, 0.018713688, 0.07492901, -0.073698774, -0.094306625, 0.012371682, 0.07596194, 0.08086974, -0.011985256, 0.07044647, -0.032566633, -0.021923142, -0.08070626, -0.04659584, 0.1943335, -0.019161671, 0.0052470397, 0.12806721, -0.051219877, 0.051831007, 0.07214742, -0.09267863, 0.21049729, 0.07388573, 0.03885423, 0.02281256, -0.078457326, 0.1435983, -0.020202594, 0.014066688, 0.1405694, 0.0023713366, -0.011126247, -0.12690797, -0.09574409, -0.044922374, 0.18952718, -0.06664014, 0.03220966, -0.012797743, 0.030848559, 0.008029723, 0.07233269, -0.0756777, -0.014155867, 0.0017423115, -0.09374336, 0.062119983, 0.17501986, 0.010338366, 0.12206918}, 
{-0.15015765, 0.19751371, -0.030646969, -0.028875453, 0.04495865, 0.14926586, 0.0048495634, 0.03222553, 0.06847966, 0.015271866, 0.041137543, -0.10071023, 0.020972362, -0.08090315, 0.093634635, -0.17642535, -0.02430144, 0.009710282, -0.039955266, -0.08096364, -0.054667804, 0.07031647, -0.008159682, -0.16845107, -0.023157986, -0.055608876, -0.063990645, -0.08671984, -0.09969056, 0.0428921, 0.055395577, 0.06725199, -0.09431852, -0.07865728, -0.096914485, -0.03809231, 0.17224583, 0.080499075, 0.009604824, 0.03226044, -0.08941071, -0.049052075, -0.002401332, 0.23803332, -0.055318337, 0.0015912709, -0.023088189, 0.02347435, 0.19225514, 0.030279545, 0.025778582, 0.20909318, -0.0024698297, -0.082711294, 0.0694628, -0.11053478, 0.11704984, -0.11510901, -0.014398398, -0.05964952, 0.081925936, 0.0037083505, -0.15206198, 0.04316748, 0.040987425, 0.15154535, -0.09515204, -0.04323026, -0.025952734, -0.062564775, 0.009624636, 0.0914003, 0.040560078, 0.0092808, -0.083312914, -0.06458241, -0.07650021, -0.04730624, -0.09378507, 0.16083701}, 
{-0.12363037, 0.042187754, 0.0888341, -0.09023741, 0.056934852, -0.05648734, -0.07329747, 0.012259628, 0.022680342, 0.14705834, 0.04454484, -0.014729479, -0.1831102, 0.044615515, -0.0037029374, -0.011440117, -0.05270333, 0.038367487, 0.0068741813, 0.057052523, -0.064376384, 0.0295028, 0.021161385, -0.1437902, 0.0089211045, -0.03344832, 0.046273105, 0.0038430446, -0.045781765, -0.027823394, 0.07322962, -0.05494906, 0.04433574, 0.06983001, 0.04247063, 0.07303763, 0.047269017, -0.014740805, 0.026822275, -0.046652243, 0.018069288, 0.065202676, 0.20418948, 0.14960249, -0.018166222, -0.038460765, -0.1172292, -0.06906535, -0.027724842, 0.025910918, -0.0313596, 0.18470961, -0.086117245, -0.076690674, 0.018562809, -0.19859552, 0.093815394, -0.08381062, -0.04680675, 0.09983572, -0.06707778, -0.010799034, -0.21928966, 0.0676148, -0.08305818, 0.14474161, -0.04500019, -0.10942573, 0.094408445, -0.061631452, 0.028681653, -0.094914705, -0.015497259, 0.053093188, 0.045749746, -0.08169781, 0.087276556, -0.023769455, 0.059967317, 0.17015924}, 
{-0.31161362, -0.09580016, -0.032942247, -0.024811454, -0.0918104, -0.48489246, -0.03390603, 0.08546027, -0.06639167, 0.45568657, -0.027294733, 0.068997614, -0.54728085, -0.09118793, 0.113964766, 0.16078633, -0.07818138, 0.03741666, -0.006211363, -0.09408169, -0.42662463, 0.08149171, 0.065250866, -0.22980538, -0.01762417, -0.42127907, -0.08750291, 0.04075692, -0.051766034, -0.072457865, 0.014223906, -0.2299788, -0.100959145, -0.07345352, -0.066889696, 0.0775624, 0.41809094, -0.039917916, 0.21448141, -0.05607189, 0.03224704, -0.018903505, 0.39725712, -0.18881358, -0.04024384, 0.018865433, -0.4118176, 0.064585246, -0.2150861, -0.050694633, -0.040219404, 0.15373644, -0.27857047, 0.018184535, -0.09411302, -0.3881007, 0.17925416, -0.30659252, -0.017497176, 0.10117042, -0.043537386, -0.024867008, -0.48154113, -0.038884766, -0.08315755, 0.08391607, -0.051121604, -0.059313413, -0.08605588, -0.052124992, 0.082615785, 0.028592356, -0.086271994, -0.06454788, -0.01287946, 0.029952403, 0.020138377, -0.13590379, 0.0017640591, -0.002894179}, 
{0.014035028, -0.126232, -0.02739802, -0.031127717, 0.0365864, -0.18811668, 0.07053373, 0.077956915, 0.035911206, 0.19021848, 0.091406174, -0.089514434, -0.08516673, -0.09908677, 0.029538661, 0.118872195, 0.08171699, -0.030124046, -0.01790715, 0.046076156, -0.028585605, -0.05204476, 0.079266705, -0.08249687, -0.09562129, -0.112008624, 0.051423855, 0.049709704, 0.053210147, 0.03359548, -0.027824266, -0.0054122247, 0.06794357, 0.036875766, -0.07547425, -0.0075056255, -0.05900185, 0.051092554, 0.0135861635, -0.0110516725, 0.041071106, 0.036918417, 0.18581499, 0.15940242, -0.07466823, -0.07494506, -0.020772308, -0.07063015, -0.11971426, 0.083602324, -0.057706453, 0.0589753, 0.003080479, -0.079040304, -0.017061576, -0.10765089, 0.3767473, -0.14136794, -0.033698276, -0.21501203, -0.0015847182, 0.064247414, -0.06232313, 0.06271033, 0.007553942, -0.037282825, -0.026326068, 0.083778925, -0.07337082, -0.037549768, -0.08002024, 0.06877319, 0.01877311, 0.075417645, -0.008664703, 0.021036422, 0.046510175, 0.22001025, -0.0073033944, 0.022785973}, 
{0.05132044, 0.05832633, -0.027857456, 0.08803991, -0.09031977, -0.12890702, -0.007998022, -0.07862508, 0.0013535519, -0.06485881, -0.078451596, -0.057416584, 0.045374632, 0.07590713, 0.016725076, -0.047649167, -0.004081719, 0.08869568, 0.08782945, 0.046905216, 0.063095696, 0.054637883, -0.06552386, -0.018006356, -0.06209501, 0.12124916, -0.05156103, -0.053302366, 0.052864037, -0.06255453, 0.085372046, 0.13411264, 0.07030613, 0.01681427, -0.0583408, -0.058334295, -0.079453476, 0.06973451, 0.034789138, 0.043327074, -0.06816675, -0.065999635, -0.057629924, 0.30703023, -0.052828707, -0.09825238, 0.07773609, 0.09351347, 0.018077524, -0.08736743, -0.03703736, 0.056100104, 0.07354318, 0.05858007, -0.09192707, -0.06346941, 0.42721212, 0.06608131, 0.040951837, -0.21161212, 0.07974155, 0.019284436, -0.02201092, -0.060505264, 0.089423865, 0.10486117, 0.077989615, -0.008789065, 0.07022264, 0.06543597, -0.08817787, 0.0032075122, 0.08053447, -0.043606155, 0.08759871, -0.024374858, -0.06551995, 0.2703745, 0.02761107, 0.10612084}, 
{0.29650798, 0.3953949, -0.005006539, 0.077262715, 0.06034477, 0.21428093, 0.030886116, -0.05812541, -0.04494199, -0.26048487, 0.0582762, -0.042550314, 0.31327423, -0.08312403, 0.04816909, -0.27190435, -0.0733364, -0.041129384, 0.055579282, -0.08348384, 0.01042073, 0.046442, -0.036033813, -0.16255727, 0.016735613, 0.34861112, -0.074350014, 0.050065406, -0.13440329, -0.045607388, -0.004280616, 0.35585132, 0.02269625, -0.09637746, 0.08646879, 0.04784272, 0.04796684, 0.0746598, 0.1358729, -0.015341129, 0.06795249, -0.25198364, -0.24182662, 0.37499586, -0.014864698, -0.052023076, 0.16337186, -0.053514916, 0.13028936, -0.06881789, 0.024133874, 0.037248287, 0.10760036, -0.049193412, 0.032754652, -0.118334524, 0.14887938, 0.31907535, 0.07910841, -0.59194976, 0.028112242, -0.0010407032, 0.12904592, -0.08515762, -0.09054729, 0.08739882, -0.047306977, -0.22931604, -0.069246165, -0.06860785, -0.039014544, 0.06458942, -0.055732645, 0.0017507201, 0.08159311, 0.2163306, -0.030929042, 0.3814597, -0.035147633, 0.18289028}, 
{0.2648112, 0.08431789, 0.08228042, 0.014354106, 0.024670783, 0.36461115, 0.29485977, -0.0764533, 0.041242834, 0.060572054, 0.006554061, 0.0457971, 0.11244633, 0.052251596, -0.054989196, -0.23073803, 0.03414033, -0.094054975, 0.020744346, -0.033796996, -0.18485326, 0.028204404, 0.06700318, -0.26908988, 0.009665962, 0.1675985, -0.0792307, -0.06934018, -0.11617455, 0.012634587, -0.07716079, -0.033697486, 0.2612677, 0.05937675, 0.025092486, -0.06620355, 0.3437446, 0.0033462765, 0.24792051, 0.07512386, 0.04409477, -0.39099646, 0.12469079, -0.40525612, 0.036537595, -0.025165346, 0.06603556, -0.026605338, 0.08962473, 0.036145326, 0.07870776, 0.24283637, -0.11277817, -0.023176938, -0.053279996, -0.080225945, -0.47574866, 0.36378387, 0.083548024, -0.017880173, -0.0714681, 0.07521931, -0.36853567, -0.07985063, 0.006546339, -0.015893854, -0.06615884, -0.37234414, 0.023859374, 0.01787117, 0.0012787316, -0.064420775, -0.0064827907, 0.012007103, 0.0082772365, 0.42090908, -0.03507864, -0.08151386, 0.0007221922, 0.11797341}, 
{0.120222114, -0.18922816, 0.05814391, -0.019014206, -0.06167327, 0.043496452, 0.061727658, 0.0663434, 0.028991984, 0.028051928, -0.027673498, -0.0967068, -0.007563798, -0.053002536, 0.06397238, 0.123249374, -0.09728395, 0.0355561, -0.087105505, 0.004064348, -0.034041233, 0.018063053, 0.06354601, 0.044323888, -0.0953606, 0.059437726, 0.009231195, 0.0678096, 0.066269204, 0.029939871, 0.07604614, -0.021804804, -0.070350476, -0.08211227, -0.022356344, 0.094332315, -0.050271392, -0.0829946, -0.14038484, 0.0644932, -0.034010027, 0.120896205, 0.03967295, -0.014434125, 0.0861944, 0.06705705, 0.06324119, 0.030135535, 0.0217796, -0.048407443, -0.08757554, -0.107427806, -0.13696468, -0.054329045, -0.08951193, 0.018842544, -0.17081931, 0.00703993, -0.09984335, 0.04165764, -0.1019289, -0.04577191, 0.17210904, 0.043738194, -0.042388692, -0.16547683, -0.06451741, 0.19143948, 0.077278204, -0.02380025, 0.091697626, -0.07868353, 0.00807272, -0.05230622, -0.070402876, 0.06942539, -0.052860137, 0.10065933, 0.06288528, -0.11521573}, 
{-0.16503523, -0.14445968, -0.010423616, 0.034763027, -0.026130093, 0.14838043, -0.08927892, -0.050604105, -0.024356188, -0.005931366, -0.04374663, -0.10044575, -0.20398252, 0.05781797, 0.12456955, 0.26737905, 0.038145218, -0.04010277, -0.0639935, -0.005165101, -0.044402942, -0.0321141, -0.004270129, 0.17394587, 0.015262627, -0.11693058, 0.0091989115, 0.0023017891, 0.20341338, -0.08532458, -0.032913942, -0.14882001, -0.23379032, -0.10002967, 0.041645017, -0.08713834, 0.039152563, 0.0804351, -0.015322468, 0.08577463, -0.040370706, 0.2793829, 0.094347626, -0.030326294, -0.07997659, -0.09467878, -0.12430572, -0.07182894, -0.16467588, -0.029131157, -0.04712573, -0.06620942, -0.14575656, 0.08756524, -0.08575107, 0.036706764, -0.27990994, -0.1300099, 0.08376122, 0.07180125, -0.09678496, -0.039236516, -0.005239169, -0.035946146, -0.008988851, 0.09701418, -0.0039437264, 0.1489117, -0.06756264, -0.09950101, 0.004347978, 0.042986132, 0.041701265, 0.04609157, 0.034698416, -0.09403941, 0.004261277, -0.11708922, -0.083640695, -0.05020425}, 
{-0.25501722, -0.20779666, -0.044728123, 0.056796763, -0.016591087, -0.06988182, -0.060912948, -0.08155472, -0.06129821, 0.11636307, 0.010808995, 0.014231454, -0.384781, 0.06677961, 0.2343527, 0.3043874, -0.012454406, 0.033492886, -0.025287323, 0.038028378, -0.17556642, 0.031075494, -0.01929444, 0.30772668, -0.098494194, -0.18785116, 0.027828865, -0.08179364, 0.3791418, 0.0420142, -0.02784938, -0.24796335, -0.23174876, 0.06550301, 0.0150174415, -0.023473985, -0.12743984, -0.055562627, -0.13166565, 0.022677634, -0.08425353, 0.33322385, 0.18265322, -0.1559217, -0.08916498, 0.030484319, -0.22434567, -0.039786372, -0.46909982, 0.019495554, 0.008441396, -0.23168685, -0.22545987, -0.061101843, -0.073044926, -0.024366887, -0.1693966, -0.42082313, -0.08534237, 0.023455359, 0.05496632, 0.056250293, 0.075801075, -0.04207927, -0.08822608, -0.070539504, 0.04809477, 0.19864355, 0.019858278, 0.07028509, -0.26828155, -0.08830313, 0.07545923, -0.0133202365, -0.014488294, -0.25332472, 0.057844818, -0.35805392, -0.012082458, -0.2307955}, 
{-0.056151286, -0.024655672, -0.08786138, 0.028405447, 0.019560786, -0.053517874, -0.1434705, -0.07686128, 0.030573348, -0.11213008, -0.06367769, -0.09775726, 0.10280863, 0.021206956, 0.03458462, -0.030396746, 0.07245318, -0.084275335, -0.009071492, -0.0116093485, 0.060866036, -0.028730499, -0.011790663, 0.022894766, 0.064319186, -0.048711654, -0.0775917, 0.08134611, 0.09682696, 0.009159189, 0.01730186, -0.018957246, -0.014918003, 0.085867085, -0.042908717, -0.08983352, -0.07513897, -0.040527616, -0.07617565, -0.09274149, -0.043644648, 0.048267823, 0.019484155, -0.08086708, -0.06526345, -0.099017784, -0.05019178, 0.077373795, -0.14832745, 0.014274944, -0.0053540715, -0.085837685, 0.09054047, 0.07228076, -0.09143088, 0.09253595, -0.20070061, -0.13544542, -0.06970656, 0.048511453, 0.014042279, -0.07427361, 0.12036949, 0.05069681, 0.059677556, 0.11806814, 0.01715397, 0.09345547, 0.09334003, -0.04463977, -0.112727635, -0.025060833, 0.04151638, -0.029060055, -0.059447587, -0.038468227, -0.057728697, -0.19785956, -0.007842831, 0.06795932}, 
{0.05309769, 0.11799634, 0.009449213, -0.07650086, -0.058661122, -0.11917827, 0.0190803, -0.057356365, 0.041333478, -0.09032469, -0.06256948, -0.09809869, 0.06344039, 0.046805523, 0.028204853, -0.06275526, 0.07419917, 0.05060301, -0.01844716, -0.00742384, 0.015410828, 0.04365597, 0.06848241, -0.07518473, 0.06239329, 0.15336925, -0.02250462, 0.05999741, -0.037806235, -0.056637924, 0.035817005, 0.21079686, 0.040631723, -0.01800562, 0.03924061, -0.04087382, 0.04447955, 0.059118953, 0.015004873, 0.061952505, 0.06928541, -0.060277034, -0.08041395, 0.19143571, -0.05444, 0.017371163, 0.18254302, -0.0068406165, 0.1577455, 0.0752873, 0.010009989, 0.12861799, 0.20053512, 0.060052197, 0.078431375, 0.03580927, -0.1396782, 0.15319005, -0.063934565, 0.046112034, 0.016747337, -0.019682571, 0.029953212, -0.07209821, 0.072044894, 0.03409762, -0.00958813, -0.07942258, -0.0321797, 0.050186407, -0.046648435, -0.0439147, 0.025381247, -0.0028104535, 0.07005277, -0.0016767818, 0.069255985, 0.004125385, -0.009022698, 0.13156223}, 
{0.027189054, 0.103455864, 0.036338132, 0.035710774, 0.022491839, -0.24010468, -0.018146781, 0.054438673, 0.0025157803, 0.0072553856, 0.03977572, 0.028651405, 0.13605893, 0.06644906, -0.0021024388, -0.13186596, -0.06847661, 0.045837082, 0.08477453, -0.077902764, 0.050090026, 0.0003989974, -0.04493222, -0.05745535, 0.013022127, -0.065803654, 0.08933575, -0.060523625, -0.15628971, 0.016209707, 0.013697148, 0.13185805, -0.0008683234, -0.04789245, -0.03425623, 0.09335811, -0.0938075, 0.0020837795, -0.06077326, -0.006306685, -0.07458446, -0.102749005, -0.12636231, 0.17959256, 0.03954176, -0.014137739, 0.2250062, 0.02195508, 0.1067355, 0.07320586, -0.045338996, 0.2308544, 0.14981502, 0.06616007, 0.03720648, 0.083642595, -0.030416435, 0.08957123, -0.012186761, 0.1887402, 0.026657127, -0.035527244, -0.059791557, 0.07421482, 0.06666181, 0.09574258, -0.03348002, -0.053538784, -0.06688051, 0.028841933, 0.16636069, -0.07999624, 0.02523174, -0.00018095846, 0.0119048245, 0.043708045, -0.039054856, 0.06316434, -0.044571456, 0.07843412}, 
{0.03217369, -0.027593262, 0.087888055, -0.029084297, 0.013223721, -0.27140698, -0.033940166, -0.018193994, 0.010430968, 0.108837515, 0.07403015, 0.063200854, -0.06795898, 0.0031156077, -0.050189123, 0.07325098, 0.009655768, -0.075564995, 0.095131986, 0.037540704, 0.1931231, 0.023490604, 0.039311282, -0.18831092, 0.052085236, -0.05242113, -0.054531913, 0.009452013, -0.09368863, -0.029928165, -0.034027558, 0.016874665, -0.035677727, -0.012768318, -0.08816586, -0.015155144, -0.12808827, 0.04426376, -0.05750568, -0.072681405, 0.0069408305, 0.03154098, -0.07833442, 0.06766182, 0.038966157, 0.08576504, 0.14704737, -0.01420822, 0.15027246, 0.047459967, -0.03448601, 0.098727405, 0.1901246, 0.06708655, -0.0037435517, 0.13107105, -0.029047128, 0.037409317, 0.024996454, 0.25510028, -0.013085044, -0.06118918, 0.042618334, -0.0990718, 0.06851749, 0.086714365, 0.030849405, 0.050554033, 0.05703149, -0.03647332, 0.22420898, 0.091994144, -0.0885948, 0.07795956, 0.052507404, -0.15323894, 0.0364798, 0.18456775, -0.020276934, -0.14044033}, 
{0.04100332, 0.08576811, -0.023829432, 0.05407392, -0.07661596, -0.14391555, -0.058716007, 0.060744844, 0.04450353, -0.086805955, 0.060106106, -0.07516343, 0.052134085, 0.04319754, 0.01877143, 0.0068247896, 0.05732888, 0.07300981, -0.02053067, 0.05726471, -0.099494375, 0.076392554, 0.04685516, 0.0001983695, 0.085672796, 0.07880489, -0.0744264, -0.021775827, -0.015711656, 0.050731543, -0.007630611, 0.1185369, -0.090800405, -0.05459426, 0.07040978, -0.019876316, -0.019730026, 0.047673862, 0.0501848, 0.023730172, 0.046267565, -0.025383756, 0.040944654, -0.004412004, -0.06567716, 0.0044635856, 0.024372604, 0.060948275, -0.019680725, -0.07960042, 0.07106958, 0.07516121, 0.109262206, 0.029287482, -0.09439976, 0.069142036, -0.0075387415, -0.08221335, 0.008924075, 0.107700504, 0.060246393, 0.019227041, 0.08562509, 0.01796037, 0.06073814, 0.1448489, -0.09080674, 0.037297312, 0.08967354, -0.08934327, -0.1007689, -0.054864813, 0.05056189, 0.021828895, 0.028157733, -0.13790134, 0.07912294, 0.016496014, 0.043002076, 0.05526588}, 
{0.042595442, 0.13789988, 0.042657014, 0.059862696, 0.035194825, -0.077882715, 0.009219202, -0.022503367, 0.07269782, -0.02397503, -0.021481192, -0.08309486, -0.045408726, 0.053971943, 0.14667843, 0.07076087, 0.08698537, 0.033432044, -0.022733666, 0.07781113, -0.07343677, 0.006976731, 0.021873295, 0.16969925, -0.009139254, 0.098862216, -0.035034902, -0.013135437, 0.054456055, -0.014582776, -0.06582213, 0.08016611, -0.1140056, -0.07392521, 0.018501146, 0.08344928, 0.06726224, 0.028357252, -0.08184439, 0.062424004, 0.056803055, 0.022634953, -0.10230569, -0.019440493, 0.06524553, 0.007779163, -0.003193645, -0.01904162, -0.14281031, 0.052301206, 0.06058702, -0.028959457, -0.08881263, 0.06772471, -0.052088365, 0.08549771, -0.14424244, -0.1362355, 0.043473728, 0.034286726, 0.06873281, -0.007160723, 0.021846412, -0.095748894, -0.09526796, -0.021049699, -0.067547135, 0.12936403, -0.026201181, -0.048591807, -0.15867889, 0.06657549, -0.043394305, -0.0038800142, -0.08780181, -0.042950884, 0.042164624, 0.12468714, 0.056712396, 0.035837986}, 
{-0.03185379, 0.096606046, -0.003543021, -0.06887441, -0.07650781, -0.03745921, -0.061502546, 0.032054693, -0.082112975, -0.016078325, -0.085028246, -0.055282433, 0.11712847, -0.085465595, 0.16397575, 0.13121004, -0.06334683, -0.07949974, -0.058349594, 0.03910769, -0.0066672405, 0.032263715, -0.0644531, 0.11562816, -0.019374968, 0.024824891, 0.041199155, 0.08631326, 0.14553562, -0.07617434, -0.006218543, 0.116146706, -0.015745912, 0.06713642, -0.02188243, -0.08188099, -0.1328144, -0.045740493, -0.03654583, -0.058467317, 0.06430137, 0.040714797, -0.10321989, 0.047518976, -0.024281815, 0.07467759, -0.0758622, 0.023172572, -0.08694459, 0.0787959, -0.0692729, -0.20174788, -0.10977069, -0.046768878, -0.031042062, -0.053684056, -0.11998611, -0.11414102, -0.038137406, -0.03419666, 0.022396712, 0.008265684, 0.12379454, 0.08137952, -0.05145148, 0.05656516, -0.046656016, 0.05434174, 0.023658246, -0.059626795, -0.106969796, -0.017700158, 0.021524843, -0.04368599, 0.0767688, 0.0679897, 0.008318701, 0.08367793, -0.026528977, -0.081559815}, 
{0.12976791, 0.05948133, -0.011349226, -0.08207277, -0.019456942, -0.108833775, 0.07093955, -0.06701307, 0.061472457, -0.15950009, 0.059926353, -0.049968038, 0.08409989, 0.031059884, 0.15468128, 0.048744764, -0.04684074, -0.03540515, -0.036520556, 0.062371407, -0.075912975, 0.07016738, -0.013565376, 0.16420276, 0.08023275, 0.06952869, 0.036079623, -0.039164253, 0.17826796, -0.08326994, -0.054257877, 0.012563305, 0.017252576, -0.08963875, 0.05844255, 0.034827612, -0.14441003, -0.07403632, 0.04679797, 0.072595574, 0.059287045, 0.04517434, 0.012128162, -0.043798897, -0.07597804, -0.10151464, -0.08152531, -0.023262314, -0.12268006, -0.08901415, -0.0890558, -0.03462834, 0.018574428, -0.095037125, -0.049286034, 0.100803696, -0.04766802, -0.049005244, 0.021088745, -0.05390874, -0.017921863, -0.09889933, 0.16722393, 0.07404164, -0.08850097, -0.06903414, 0.016937084, 0.11171369, -0.0056647435, 0.019127278, -0.18515344, -0.009873129, -0.061705258, 0.052787706, -0.07657926, -0.029021189, -0.032862466, 0.14194033, 0.061880298, 0.021122113}, 
{0.197758, -0.04834261, 0.017896239, 0.06856008, -0.019977108, 0.08265197, 0.0055795764, -0.030164998, -0.0581203, -0.1624354, 0.059856933, -0.05463545, 0.14904131, -0.04473289, -0.022580726, -0.040831216, -0.04852038, 0.03085094, -0.08508716, -0.028860789, 0.063862815, -0.039115883, -0.077522434, 0.0947947, 0.081294134, 0.16098736, 0.035083108, 0.075892024, 0.10787666, -0.06334542, -0.021557664, 0.054218702, -0.0784304, 0.027557911, 0.038580872, -0.04024133, -0.057853855, 0.087296456, 0.008149754, -0.0025050754, -0.031605408, 0.08352175, -0.0389085, 0.07493226, -0.04963077, -0.00292635, -0.019475369, 0.08761101, -0.12575938, -0.046707686, -0.03337514, -0.18528017, -0.0046301833, 0.08917361, -0.064080715, 0.012164641, -0.11242885, 0.017735591, -0.09431615, -0.05827129, -0.046441473, 0.07701122, 0.21459863, -0.0041275686, 0.054130685, -0.07076503, -0.03359795, 0.061601374, -0.07185792, -0.013741671, -0.102129474, -0.088868245, 0.02318297, 0.073352404, -0.057808984, 0.059045464, -0.06749443, 0.13443504, -0.09013044, 0.044355042}, 
{0.14833523, 0.026590275, -0.036688335, -0.020444384, 0.01894189, 0.09999362, 0.06863928, 0.025395226, 0.03496032, -0.075639695, -0.03017223, -0.062368903, 0.123081654, 0.05811095, 0.004643023, 0.085393414, 0.062396634, -0.06189199, -0.009578645, -0.08960659, 0.058910068, -0.062204905, -0.04297756, 0.05610397, -0.07380995, 0.20266323, 0.06767883, -0.032799914, 0.028062096, 0.058103565, 0.06672244, -0.0022126974, 0.069800906, -0.076989435, 0.029833585, 0.034837775, -0.12589099, -0.093005255, -0.10605341, -0.046915963, -0.078522995, 0.096426286, -0.11832691, 0.051874787, 0.003723532, -0.032179125, 0.022155186, -0.08428874, -0.091892414, 0.058888245, 0.03565134, -0.025009898, -0.03458005, -0.08194688, 0.055320747, 0.119189456, -0.00070356915, 0.08685443, 0.026254026, -0.083752386, -0.011086184, -0.039147686, 0.06973757, 0.027503023, -0.018976172, -0.1553892, -0.061347675, 0.1099246, -0.036135644, -0.06547749, 0.010874019, 0.083464585, -0.06910948, -0.00093394844, -0.0658743, -0.044041414, -0.07255357, 0.10703569, 0.009581037, -0.06273596}, 
{0.11665839, -0.060692675, -0.047967035, -0.05027545, 0.024296688, -0.054599658, 0.00203969, -0.07112213, 0.0017392066, -0.060651053, 0.03349594, 0.010198822, -0.007557393, -0.040338412, 0.023545284, 0.111405544, 0.023886602, -0.006394595, 0.023697436, 0.030003585, 0.115544625, -0.09114333, -0.020541184, 0.09530548, -0.0654984, 0.03951788, 0.04132103, -0.06651571, 0.16267444, 0.05492717, -0.07832934, 0.019257633, -0.08264292, 0.033066478, 0.036602713, 0.04497438, -0.058067016, 0.012823827, -0.09548971, -0.020367417, -0.07495302, 0.09792067, 0.03987371, 0.03242993, 0.04333269, -0.096088216, -0.07700911, -0.03834949, -0.106055856, 0.014709621, -0.07267962, -0.17498384, 0.013212896, 0.07043636, -0.080560096, 0.0340723, -0.086871065, -0.0021171446, 3.3547498e-05, -0.008471013, -0.040616527, 0.030541029, 0.1395094, 0.0156163685, 0.03988604, -0.09745372, -0.020837262, 0.05078482, 0.08218532, 0.059182763, -0.062941134, 0.010131329, 0.047544364, -0.0015447583, 0.07117173, -0.008498933, -0.088264085, 0.11742345, -0.0463225, -0.032443613}, 
{0.09589061, -0.043465193, 0.052397408, 0.009720817, 0.014276808, 0.100166515, -0.012342584, 0.0056614703, -0.0625976, -0.10094804, 0.07396647, -0.09136283, -0.004493538, -0.044531353, -0.036360804, 0.045270786, 0.034638617, 0.0887857, 0.0820582, 0.05665077, -0.020819446, 0.067798845, -0.08161328, 0.016647005, -0.047527485, 0.12236591, -0.07238865, -0.003344449, 0.094105914, 0.03853987, -0.007833018, 0.0283063, -0.07618253, 0.08194743, -0.0029164995, -0.072426476, 0.038860638, 0.025321776, -0.031106919, -0.016084978, 0.056673132, -0.024189968, -0.085150056, 0.081975386, 0.09167976, 0.07557517, 0.0882714, -0.059193958, -0.06631571, 0.044067312, 0.011016044, -0.008217838, -0.09004163, -0.024692856, -0.088900276, 0.1287275, -0.061264392, -0.054263648, 0.07128332, 0.016763594, -0.08438891, 0.0050707255, 0.07980481, -0.10111533, -0.039857853, -0.004673664, 0.039484613, 0.14243577, 0.052431248, -0.079131186, -0.03645018, 0.052683093, -0.05366923, 0.032331996, -0.029716687, -0.054115813, 0.052964304, 0.0081996005, 0.014803, -0.046573993}, 
{0.06547864, -0.08787507, -0.0062910505, 0.07797761, 0.009024084, 0.007976819, -0.034505654, -0.061395347, -0.07088687, -0.019436648, -0.016521627, -0.024155525, 0.10010483, 0.02387906, 0.013732907, 0.029159289, 0.05624359, -0.048325658, 0.038739927, 0.07531744, 0.079525135, -0.079333104, 0.079822786, 0.059684698, -0.05387003, 0.059206508, -0.05669849, 0.063509874, 0.029052226, 0.07923141, -0.08223041, 0.07903867, 0.08587251, 0.06399025, -0.03048552, -0.01791919, -0.11330369, 0.06268975, -0.03283393, -0.015516817, -0.05141282, -0.03587109, 0.06837027, -0.032534745, -0.040887572, 0.05338183, -0.07021953, -0.027575634, -0.039384317, 0.079253845, -0.099068515, -0.058878906, -0.11531173, 0.075388916, -0.09341607, 0.01697983, 0.09324465, -0.013174501, 0.07158749, 0.045715455, -0.06607306, 0.009669172, 0.034921687, -0.024396792, 0.043512523, -0.13578136, -0.03421489, 0.025828453, -0.029619403, -0.085193865, -0.037533626, -0.07390946, -0.08340387, -0.09807008, -0.03467563, -0.015996505, 0.044244956, -0.016868642, -0.023967385, -0.10509844}, 
{0.0637504, -0.081405155, 0.029595613, 0.08146744, 0.024950093, 0.08194301, -0.015152943, 0.09000709, -0.046918333, 0.0027519828, 0.06229557, -0.049057674, -0.042159498, -0.010429942, -0.07780222, 0.034458097, -0.04511775, -0.07880685, -0.08624267, 0.05160077, 0.03538895, 0.06527055, 0.056065775, 0.036193877, -0.088570766, 0.01214541, -0.0883545, -0.02613411, -0.0077229138, -0.035437934, -0.006571884, 0.009386511, 0.09094838, 0.057000507, 0.06320497, 0.011830978, 0.011218526, 0.07353068, 0.043825973, -0.09861563, -0.027274113, -0.041674994, 0.08414929, -0.011850687, 0.024354033, 0.009868726, 0.015560473, 0.024290688, 0.05447968, -0.04622946, 0.014486639, -0.11330826, -0.13627729, -0.07302896, 0.034465976, 0.12352726, -0.07889457, -0.00395076, -0.011484274, 0.011368592, 0.035673346, 0.058300585, 0.022800675, -0.0106641855, 0.08730504, -0.1551448, -0.0884531, 0.07114859, -0.09130114, 0.059495233, -0.046451036, 0.060782604, 0.07472953, -0.06931666, 0.04019901, 0.02896472, -0.08498108, 0.06493855, 0.019075088, 0.036074292}, 
{0.077110745, -0.13956866, -0.033950362, 0.01486387, -0.032410223, 0.07663232, 0.17312394, -0.025789032, 0.06938945, -0.1415321, -0.028070731, 0.038587395, 0.024860717, 0.017852401, 0.054110754, -0.0038287572, -0.018200267, -0.07164605, -0.007101193, -0.04741607, 0.11461188, 0.0076901866, -0.056896247, 0.07360957, 0.025510198, 0.095033504, -0.019975252, 0.062369455, 0.12730059, -0.023696763, -0.009893236, -0.022218697, 0.13295951, 0.014434523, -0.056433596, -0.09075648, -0.051954754, 0.041869167, 0.04700794, -0.010450384, 0.085234456, -0.059510253, 0.025834758, 0.028986678, -0.029747479, -0.06513646, 0.055403918, -0.08108531, -0.0118723875, 0.038160358, 0.0011986389, -0.021286624, -0.17611913, 0.03880816, -0.03029196, 0.122378215, 0.08023821, 0.15709639, 0.007925437, -0.10071653, -0.10033405, -0.030783365, 0.045169115, -0.06474632, 0.07982639, -0.17768459, -0.06297007, 0.05050177, 0.065842696, 0.014286751, -0.081154056, 0.06534339, -0.05882634, 0.06521294, 0.08788588, 0.13630448, -0.05977418, 0.021344692, 0.042561613, 0.034007553}, 
{0.11954909, -0.026604818, -0.049914945, -0.025516097, -0.040853955, 0.11323573, 0.19492652, 0.09028483, 0.026512861, 0.032846753, -0.096435845, -0.025936995, 0.062226355, 0.026338624, 0.0012652044, 0.11456039, -0.06159918, -0.014393233, -0.047841854, 0.07512535, 0.07629603, -0.012405966, 0.008022487, -0.0429221, 0.07597013, 0.13312845, -0.0020030886, 0.044934556, 0.00827883, 0.031187665, -0.023565944, -0.12672468, -0.037957825, -0.006435391, -0.0054844953, -0.041084785, -0.044945247, 0.063301064, -0.021548733, 0.02135153, -0.022529257, -0.059230547, 0.1039498, -0.055459715, 0.032391198, -0.029785419, -0.03446251, -0.019534454, 0.07001769, -0.083247155, -0.007516699, -0.1487006, -0.039756622, -0.0007009715, -0.09283124, 0.15123814, 0.04855344, 0.14798722, 0.010525145, -0.08341657, 0.027778296, -0.046294212, 0.080571234, -0.08598186, -0.024417315, -0.08698043, -0.049065497, 0.02909907, 0.072822906, 0.032085646, -0.0020219374, 0.044457994, 0.08111022, -0.092871904, 0.03499198, 0.14754061, 0.07126078, -0.007177186, -0.057682876, -0.083571106}, 
{0.104060136, -0.0869563, -0.09890643, -0.006706754, -0.09557718, 0.02191744, 0.122776754, 0.018427081, 0.04094122, 0.038779344, 0.040210225, 0.018872866, -0.047034126, -0.011505571, 0.041662563, 0.001026711, 0.031281896, 0.08002239, -0.015713848, -0.0145381745, -0.041623995, -0.04556176, -0.09484787, -0.04186546, 0.016810384, 0.0843594, 0.009136066, 0.020357225, 0.036808103, 0.07013753, 0.011499414, -0.072232716, 0.039389867, -0.049071386, -0.04634086, 0.043783613, -0.0022535287, -0.0060354397, -0.027434396, -0.02551004, 0.01353591, -0.08681361, 0.18242618, -0.019996334, -0.027462542, -0.079715855, -0.113848485, 0.019236505, 0.018638883, -0.09676087, 0.010104122, -0.07353781, -0.07496167, 0.039624386, -0.06051382, -0.04223694, -0.008748691, 0.036160205, 0.07242149, 0.06348617, -0.069554634, -0.004163413, -0.06559869, -0.02796065, 0.077349864, -0.12603533, -0.050179306, -0.039804026, 0.06902241, 0.053342495, -0.028102994, -0.0165205, -0.034054544, 0.03774631, -0.01750799, 0.07888371, 0.029788723, 0.029868439, -0.021742918, -0.0074162893}, 
{0.08377088, -0.006128674, 0.018163206, -0.06628296, 0.041811384, 0.15945995, 0.068996936, -0.040858153, -0.06101162, -0.004984619, -0.040770557, 0.015774991, -0.036209665, -0.053748205, 0.005366122, 0.14217421, -0.04763118, -0.00031545758, -0.071862936, -0.041292097, -0.030062128, -0.06827769, 0.068348445, -0.051304147, 0.048066635, 0.10742052, 0.09123076, -0.08183112, 0.07889681, -0.029826237, 0.008553628, -0.14269236, 0.058036607, -0.038230766, 0.017442277, -0.056038205, 0.08822919, -0.007388407, 0.13552628, -0.023067994, 0.069941156, 0.05822719, 0.093726195, -0.08693801, -0.084407926, -0.09071554, -0.041668214, -0.051262263, 0.00301186, -0.008897045, 0.016036604, -0.13769814, -0.10105315, -0.061523143, 0.041264407, 0.111078896, 0.10325982, 0.081851505, 0.062354792, -0.020593213, 0.062986486, 0.028587192, -0.091240436, -0.08035159, -0.061316103, -0.12431012, -0.08308721, 0.08291255, -0.004047863, 0.06176668, 0.06756691, -0.038583342, -0.05837372, -0.078637116, 0.048038002, 0.036328603, -0.0771377, -0.096188694, -0.0930349, 0.044413537}, 
{-0.04729205, -0.13390356, -0.08507157, -0.06437006, -0.037103437, 0.15197966, -0.037827116, -0.07269598, 0.06378358, -0.008004777, -0.011400284, 0.010988768, -0.06395282, 0.028171198, 0.08680256, 0.12822112, 0.045489572, 0.06348992, 0.03582511, -0.016318223, -0.008607433, -0.07525549, 0.08344745, -0.05856817, 0.06452998, 0.030376049, -0.03579693, -0.034053247, 0.11921249, 0.039723467, 0.05936533, -0.009855279, -0.030183392, 0.053977847, -0.07211474, 0.044724755, 0.097745255, -0.09771014, 0.033800565, 0.08317969, 0.04964064, -0.0077179996, 0.05264286, -0.06133247, 0.038155295, 0.07906416, 0.012649529, 0.09495916, -0.138546, -0.08916936, -0.024863662, -0.027640808, -0.05219492, 0.017517325, 0.034788348, -0.028750474, 0.19185999, 0.03687716, -0.09135984, -0.041871082, 0.043449923, -0.008804737, -0.09901961, -0.018291958, -0.06287709, -0.11875647, 0.06878758, -0.065818354, 0.083120026, 0.03817495, -0.07715366, -0.014916047, -0.08776843, -0.034176644, 0.018382318, 0.0266563, 0.052537978, 0.08229227, -0.04643176, 0.00049079454}, 
{-0.054540005, -0.031282637, -0.077761754, 0.027995208, 0.031493783, 0.07035576, -0.0108293025, 0.014968294, 0.0003174709, 0.06853796, 0.014802876, -0.04544022, 0.01675414, 0.075204335, -0.060853884, 0.007596071, 0.08710263, -0.06013664, -0.06754638, 0.030910151, 0.045799825, -0.07330112, 0.0016741306, -0.005134829, -0.006020362, -0.078547135, -0.020264283, 0.0027331559, 0.10556308, 0.009195793, -0.003693515, -0.090263605, -0.037201237, 0.07322373, 0.030806364, -0.059997596, -0.060401127, -0.06270353, 0.043713223, 0.016046703, -0.063172564, 0.089466885, 0.0056992336, 0.06262953, 0.032187305, 0.0251195, 0.045156047, 0.041518815, -0.012592976, -0.06292075, -0.09182139, -0.008316315, -0.053460944, -0.071113035, -0.086925484, 0.01894873, 0.13645768, 0.04094259, -0.037032295, 0.023887731, 0.022634506, -0.06905036, 0.053463914, 0.06933737, 0.029078208, -0.08267817, 0.029155985, 0.046921697, -0.08976845, 0.0011964354, 0.0038077543, -0.08125256, 0.07701085, -0.03916817, -0.06845919, -0.016956983, 0.0005528781, -0.0045446237, -0.0036021173, -0.034288112}, 
{-0.14310747, 0.079356134, -0.055097327, 0.047076542, 0.006158827, -0.043034837, -0.09222012, 0.009024311, -0.07914012, 0.032852244, 0.02286643, 0.08167006, -0.1417401, -0.043383174, -0.029793493, -0.032610502, -0.09218215, 0.056310408, 0.07584318, -0.025197072, 0.1324004, -0.080736704, -0.020169817, -0.14279717, 0.049521934, -0.08283839, 0.08917483, 0.0009508812, 0.0028716493, 0.023923438, 0.062303524, 0.012574737, 0.048689853, -0.018331207, 0.05314231, -0.011855923, -0.02846685, -0.06962547, -0.06457203, 0.08358357, 0.030472416, 0.087568626, 0.13214841, 0.124327175, 0.0055010915, -0.08607659, 0.16733146, -0.04355681, 0.16389711, -0.03838294, 0.052810624, 0.16934508, 0.15734659, -0.01739604, 0.051043577, 0.042360432, 0.23484352, 0.024547586, 0.01653074, 0.15154843, -0.067416355, -0.02009306, 0.044640277, -0.061611302, 0.008865883, 0.08731586, -0.0040900707, -0.021979183, -0.039856054, -0.0872316, 0.14996706, -0.091484606, -0.0929189, 0.026583752, -0.05172026, -0.08506894, 0.06728245, 0.1526432, 0.01870703, -0.01215899}, 
{0.032602344, 0.05751459, -0.031661354, -0.038885906, 0.044526685, 0.13500713, -0.15630157, 0.08055573, 0.023209747, 0.061800074, 0.009471831, -0.10091198, 0.05129326, -0.0060418067, -0.018969214, -0.079070896, 0.066150784, -0.035680115, 0.025403105, -0.07439745, 0.1974293, 0.07680399, 0.022763029, -0.1878561, -0.075167686, -0.020632418, 0.029737793, -0.022745524, -0.089296415, -0.02894521, 0.021232417, 0.11976976, 0.10971229, -0.017868556, 0.010106024, -0.08043763, -0.0141841415, -0.10078879, -0.09421022, -0.0977644, 0.021383291, -0.01987227, 0.027677037, 0.16680302, 0.042608045, 0.05465943, 0.085314855, -0.023196101, 0.05914937, 0.035894316, 0.033423264, 0.13932346, 0.19353896, 0.031086288, -0.060352158, -0.026898498, 0.038843546, 0.009952254, 0.029311698, 0.028206449, -0.023141388, 0.08914223, -0.012251851, -0.09753466, 0.013235002, -0.017918788, -0.07965082, -0.056045737, 0.0015075207, -0.0648702, 0.15983534, -0.09405876, 0.045598716, -0.037906643, 0.050848775, -0.05621479, 0.004593201, -0.0033675982, -0.0071559176, -0.052277345}, 
{-0.003538993, 0.04169083, 0.06178469, -0.091841556, 0.001403222, 0.17854616, -0.00756919, -0.029904557, -0.08785447, -0.030191299, -0.00036411575, 0.050243232, 0.027898572, -0.070997216, -0.0072963904, -0.107414015, -0.028448083, 0.026906207, 0.05020485, -0.066938095, 0.122766845, 0.014854998, -0.058864772, -0.0079337265, 0.0074220966, -0.029306406, 0.053299196, -0.03257079, -0.036551896, 0.07676154, 0.022061348, 0.18981338, 0.017507073, -0.09413922, -0.022383865, -0.08936212, -0.0705951, -0.06481325, 0.018749021, -0.0013241421, -0.00984085, 0.023510467, -0.088232696, 0.22112985, -0.06458752, -0.0006028268, 0.085917175, 0.019046336, 0.0375104, 0.06311575, 0.0037996788, 0.068378255, 0.015874112, 0.03996015, -0.014769979, 0.010258055, 0.07495866, -0.055134784, 0.014336643, -0.0091799805, 0.04666886, 0.07769133, 0.10982025, -0.03799499, 0.010041113, 0.044372514, 0.024062082, 0.07577773, 0.09551219, 0.0022065884, 0.026497044, -0.021729328, -0.021210551, 0.037039585, -0.010722966, -0.07036214, 0.07022652, 0.068946734, 0.03186863, 0.03943319}, 
{-0.0601013, -0.024306696, -0.067904204, -0.04239585, 0.0005127121, 0.09097091, 0.09305743, -0.017207298, -0.05282064, -0.054900367, -0.044132125, -0.04718769, -0.066798754, 0.047460865, -0.029042507, 0.023804436, 0.08588472, 0.052317835, -0.022020638, -0.08389966, -0.12900256, 0.038194396, 0.0049153045, -0.041231804, 0.06815087, 0.039354056, 0.08316726, 0.037024207, 0.030557562, -0.01552213, 0.040410254, 0.057284117, -0.027796999, 0.009267088, 0.04799815, 0.06671492, -0.026021898, 0.022078987, 0.015396925, 0.054813508, 0.060144745, 0.08591598, -0.025804942, 0.021625089, 0.08386605, 0.06431511, -0.057636414, -0.0538903, -0.13683178, -0.04420074, 0.052310158, -0.11412366, -0.20392214, 0.07629804, 0.073692255, -0.021476196, -0.06338912, -0.09380702, -0.08633235, -0.13756679, 0.0005838502, 0.0684501, 0.018418463, 0.05175843, -0.08524936, 0.025691586, -0.076715715, -0.05248978, -0.08073576, 0.028532652, -0.049240984, -0.08202911, 0.020478902, 0.00032941025, 0.0194813, -0.069966264, -0.03815441, -0.12625128, -0.044019066, 0.065035746}, 
{-0.16337007, -0.11865983, 0.020503646, 0.07508075, 0.0136808, -0.35593694, 0.025645241, -0.0006221228, -0.07869068, 0.14204887, -0.047444697, 0.009871632, -0.3326592, -0.02980934, 0.16941164, 0.34944236, 0.07173668, 0.086742826, -0.073440164, -0.074015744, -0.18121198, 0.009172108, 0.08908219, 0.0313868, -0.08065082, -0.17381404, 0.015380241, 0.03391193, 0.21423978, 0.041817438, -0.07939741, -0.13197795, -0.16233175, -0.050057754, -0.06727661, -0.037035506, 0.0575624, 0.06428855, 0.13994686, 0.03165834, -0.060344372, 0.2760239, 0.3174843, -0.22433467, -0.02652008, 0.038666863, -0.2871091, 0.0020890087, -0.43500635, -0.063977875, 0.068941936, -0.33143005, -0.3652485, -0.06642106, -0.0057144463, -0.08670455, -0.012492547, -0.3462768, 0.0714277, -0.14181457, 0.036161255, 0.0006620401, -0.10957726, 0.0042119273, -0.091101296, 0.025595594, -0.0021162108, 0.039587, 0.08251613, -0.012062767, -0.103650115, -0.06836721, 0.03193281, 0.07862938, -0.008630947, -0.13112952, 0.0068170917, -0.37185547, -0.024115458, -0.049050108}, 
{-0.11314878, -0.103658035, 0.004405087, -0.045589004, -0.07942128, -0.2597997, -0.0008752089, -0.08741575, 0.010745292, 0.14642689, 0.0521701, -0.0002090859, -0.19922833, -0.053606696, 0.11089656, 0.2699099, 0.040940594, -0.08088438, -0.06991558, 0.010615469, -0.11176253, 0.0025379434, -0.091573596, -0.051358357, 0.05060609, -0.06893604, -0.036785487, 0.012235945, 0.22225131, -0.026094794, 0.08797868, -0.13887484, -0.08183028, 0.08142396, 0.046505887, 0.08213358, 0.022379672, 0.021419125, -0.028877608, -0.024663007, 0.05124383, 0.13771895, 0.101122655, 0.06060659, -0.08369622, -0.094368346, -0.1132492, -0.018564887, -0.20111093, -0.0759914, -0.013103949, -0.049345333, -0.158981, -0.010963582, -0.018223457, -0.02200441, 0.23214225, -0.102811575, 0.03863286, -0.16293217, -0.029970929, -0.006923791, 0.16553599, 0.06950824, -0.03993179, -0.07183087, 0.0169722, 0.20418084, 0.07709495, 0.048868004, 0.037057757, -0.017115004, -0.050673194, 0.026830692, -0.077760965, -0.15839222, -0.07586125, 0.11488673, 0.08655647, -0.17529675}, 
{0.09420822, -0.07057559, -0.0070576444, 4.3435815e-05, 0.060128886, -0.30925745, 0.21015666, 0.019157266, -0.06940416, -0.10684525, -0.010241532, 0.038503364, 0.15438236, 0.059623264, -0.018622588, 0.093379036, -0.057561208, 0.03261576, -0.094045326, -0.06335042, -0.080638506, -0.018857738, 0.083788194, -0.24186176, 0.044200208, -0.032125082, -0.027387433, -0.0477754, -0.03737916, 0.030429315, 0.019406876, -0.12395543, 0.17738762, 0.035661355, 0.074176855, 0.051261835, 0.058038335, 0.07305782, 0.1052721, -0.08611313, 0.07424776, -0.22403055, 0.06556774, -0.012559251, 0.04404118, 0.031952035, -0.098842986, 0.0519099, 0.061944887, -0.0617771, -0.003937436, 0.01804701, -0.091448694, 0.0011625448, -0.031694636, 0.062629044, 0.18242961, 0.051328532, -0.09660763, -0.24565396, -0.07573148, 0.018567642, -0.018608058, -0.006543688, 0.058974657, -0.20940179, -0.026530392, -0.12153233, -0.029538825, -0.05785294, 0.096302666, 0.035878383, -0.09164329, 0.04095426, -0.05948909, 0.24853839, -0.03098422, 0.07004159, 0.09235332, 0.008514772}, 
