{{-0.26221514, -0.18861619, 0.2037817, -0.1343067, 0.22231959}, 
{-0.3683117, -0.6959463, -0.039076548, 0.19096632, 0.30611923}, 
{0.3025231, -0.029099584, -0.339641, 0.70024955, -0.65260446}, 
{0.39001107, -0.47012883, 0.5010513, -0.4986203, 0.17886668}, 
{0.47426447, 0.13499871, -0.9105702, -0.2778476, 0.65086585}, 
{-0.36700678, 0.54778945, 0.10993398, -0.7996839, 0.12684453}, 
{0.5814524, 0.28216842, 0.15787126, -0.5597968, 0.4281037}, 
{-0.25673914, 0.20055225, -0.22376274, -0.11109003, -0.1929297}, 
{-0.12680645, 0.0077311713, -0.016073138, -0.15110545, 0.05830884}, 
{-0.30718988, 0.39366612, -0.5379089, -0.42227924, 0.53646517}, 
{0.59610325, -0.6413071, 0.5925643, -0.5266329, -0.28360465}, 
{0.057562232, 0.11952025, 0.049746994, 0.070401244, 0.024693437}, 
{-0.3153273, -0.55105793, -0.58004814, 0.7741244, -0.0705886}, 
{-0.22216704, -0.11501694, -0.21475826, 0.006591022, 0.13785756}, 
{0.311003, -0.74056077, 0.24303794, 0.60202485, -0.5200633}, 
{-0.5635912, 0.36162436, -0.334921, 0.19899035, -0.24401882}, 
{-0.67162037, 0.76962614, -0.78535295, 0.20228806, 0.17624077}, 
{-0.249221, 0.09448761, 0.012631774, -0.2034815, -0.038962513}, 
{-0.286016, -0.8323139, 0.8135941, -0.020237496, 0.06595442}, 
{0.033669017, -0.16133563, -0.10578482, 0.1352759, -0.16593198}, 
{0.053728145, -0.57258105, -0.18041757, 0.22527131, 0.40352553}, 
{-0.23177846, -0.3596326, 0.46899012, 0.50376946, -0.7926083}, 
{0.19023895, 0.12968236, -0.02535893, -0.10351282, -0.025102198}, 
{-0.18069537, -0.09921605, -0.11051761, -0.16181177, 0.030756593}, 
{0.60871166, 0.7320334, -0.58816093, -0.23848931, -0.84031564}, 
{-0.69661486, 0.21322154, -0.17001902, 0.5990455, -0.33179274}, 
{-0.67457926, -0.33284742, -0.16938509, 0.5608387, 0.033101067}, 
{-0.20637435, -0.10052498, 0.52300876, -0.12470422, -0.5891689}, 
{0.16470686, -0.81489897, 0.57846856, 0.5263151, -0.75475335}, 
{0.42752692, 0.45691478, -1.0074008, -0.23967183, 0.40207025}, 
{0.05395444, -0.17866135, 0.2059492, -0.19898587, 0.21223348}, 
{0.25491476, -0.2015678, -0.0022273604, -0.111965105, -0.07900013}, 
{-0.2770942, 0.16202383, -0.09626214, -0.45201284, 0.40719253}, 
{-0.13229443, 0.020105796, -0.24780716, 0.16711652, 0.24910259}, 
{0.069143474, 0.034538884, -0.0063193655, -0.12349487, 0.0679399}, 
{0.14083982, -0.6104061, -0.6608952, 0.84610254, 0.6586107}, 
{0.16719058, 0.22060962, 0.029859627, 0.19214523, -0.018250218}, 
{0.59072465, 0.28784582, 0.10625627, 0.20493738, -0.6897189}, 
{0.21224776, -0.15326309, 0.0016578108, -0.24568684, 0.02779599}, 
{-0.49656752, 0.6822389, -0.21121578, 0.3971579, -0.81430036}, 
{0.6893691, 0.47112152, -0.0904486, -0.85246545, -0.052248463}, 
{0.5178297, -0.5560333, 0.35824564, -0.8813796, 0.19134557}, 
{-0.62713844, -0.44969225, 0.50480324, 0.5859499, -0.09376681}, 
{-0.06559153, 0.1877071, 0.048047397, 0.109568745, 0.045411024}, 
{-0.9057564, 0.9950206, -0.9140926, 0.47510815, -0.39081293}, 
{-0.0922142, -0.24496542, -0.0353996, 0.2375854, -0.04619977}, 
{-0.09488295, 0.1288727, -0.030057222, -0.06793903, 0.020776302}, 
{-0.009792354, 0.23301719, 0.19636811, -0.05861224, -0.008211124}, 
{-0.043943517, -0.19232869, 0.07714334, -0.15586077, 0.2443958}, 
{-0.15210429, -0.17915933, -0.05857875, 0.15306257, -0.17351507}, 
{-0.06628707, -0.11441201, -0.027933612, 0.18841389, -0.23665619}, 
{-0.21618532, -0.21775326, -0.07663396, -0.14627863, -0.20778693}, 
{-0.0822915, -0.24904275, 0.017360969, -0.15562494, 0.18759482}, 
{-0.4474419, -0.10729663, -0.42310697, -0.41592446, 0.66494584}, 
{-0.041117985, 0.19596836, -0.08413036, 0.25259766, -0.24373116}, 
{-0.04072234, 0.171431, 0.010877931, 0.069188066, -0.2241457}, 
{0.040485874, -0.20675652, 0.14840575, -0.041840598, -0.20815295}, 
{-0.03282708, 0.14030688, -0.031195033, 0.14691056, -0.10699116}, 
{0.075610876, 0.25834826, -0.20636618, 0.05611086, -0.17295185}, 
{-0.1737057, 0.079065, 0.10602114, -0.25506836, 0.0912254}, 
{-0.01980631, 0.07999101, 0.24664214, 0.20610908, -0.13590859}, 
{-0.11293171, 1.0970085, -1.6581827, 0.11153963, -0.7306822}, 
{-0.42567995, -0.5149777, 0.57577413, -0.4054404, 0.10711153}, 
{-0.25597695, 0.8461553, -0.6010135, 0.58002985, -0.6602892}, 
{0.25666592, 0.19414741, 0.027795523, -0.0071668923, -0.023479566}, 
{0.4367577, -0.6039022, 0.288885, -0.897259, -0.49834815}, 
{0.008604817, -0.066014744, 0.028473265, -0.19098832, -0.16917488}, 
{-0.09569141, -0.089111656, 0.08553491, 0.14875841, -0.08673073}, 
{0.21174276, 0.19749054, 0.021166682, 0.1549632, 0.17720217}, 
{0.39511096, -0.93159324, -0.26575288, 0.37070563, 0.75581366}, 
{-0.4038342, 0.33154047, 0.1582073, -0.59607244, -0.68962395}, 
{-0.22233814, -0.07931869, 0.18591163, -0.24936137, -0.21823013}, 
{-1.0258075, 0.3089303, 1.025255, -0.08368775, -0.9148208}, 
{-0.19073172, 0.22397989, -0.055022232, -0.12369386, 0.032076772}, 
{-0.53894645, 0.10548449, 0.11694379, -0.1894123, 0.05580342}, 
{0.05793807, -0.24629773, 0.09310147, 0.20728922, 0.1763416}, 
{0.26015997, -0.09592008, -0.14056481, -0.03597183, -0.096693024}, 
{0.56273526, 0.4160296, 0.28529677, -0.8684831, -0.36092818}, 
{0.15590398, -0.2542273, -0.025936024, -0.26199877, 0.093104936}, 
{0.69762933, 0.9423474, -1.3661633, 0.262716, -0.2657858}}